#############################################################################
## Copyright (c) 1996, Carnegie Mellon University, Cambridge University,
## Ronald Rosenfeld and Philip Clarkson
## Version 3, Copyright (c) 2006, Carnegie Mellon University 
## Contributors includes Wen Xu, Ananlada Chotimongkol, 
## David Huggins-Daines, Arthur Chan and Alan Black 
#############################################################################
=============================================================================
===============  This file was produced by the CMU-Cambridge  ===============
===============     Statistical Language Modeling Toolkit     ===============
=============================================================================
This is a 3-gram language model, based on a vocabulary of 4528 words,
  which begins "#1", "#1#9#8#6", "#2"...
This is a CLOSED-vocabulary model
  (OOVs eliminated from training data and are forbidden in test data)
Good-Turing discounting was applied.
1-gram frequency of frequency : 1104 
2-gram frequency of frequency : 7461 4148 362 373 70 967 79 
3-gram frequency of frequency : 11592 5885 138 267 15 1504 33 
1-gram discounting ratios : 
2-gram discounting ratios : 
3-gram discounting ratios : 
This file is in the ARPA-standard format introduced by Doug Paul.

p(wd3|wd1,wd2)= if(trigram exists)           p_3(wd1,wd2,wd3)
                else if(bigram w1,w2 exists) bo_wt_2(w1,w2)*p(wd3|wd2)
                else                         p(wd3|w2)

p(wd2|wd1)= if(bigram exists) p_2(wd1,wd2)
            else              bo_wt_1(wd1)*p_1(wd2)

All probs and back-off weights (bo_wt) are given in log10 form.

Data formats:

Beginning of data mark: \data\
ngram 1=nr            # number of 1-grams
ngram 2=nr            # number of 2-grams
ngram 3=nr            # number of 3-grams

\1-grams:
p_1     wd_1 bo_wt_1
\2-grams:
p_2     wd_1 wd_2 bo_wt_2
\3-grams:
p_3     wd_1 wd_2 wd_3 

end of data mark: \end\

\data\
ngram 1=4528
ngram 2=20494
ngram 3=27839

\1-grams:
-2.7712 #1	-2.4420
-5.2366 #1#9#8#6	-0.4771
-2.7833 #2	-2.4333
-5.2366 #2#0#0#4	-0.4771
-5.2366 #2#0#0#5	-0.4663
-2.9533 #2#0#1#2	-2.2636
-2.7523 #3	-2.4602
-4.4584 #4	-0.8771
-4.9355 #6#6#7#0	-0.6020
-4.9355 #7	-0.6018
-1.2366 </s>	-3.9741
-1.2366 <s>	-3.8339
-5.2366 DaT	-0.4758
-3.8052 Daal	-1.5044
-3.7314 Daalaa	-1.5622
-5.2366 Daalaa|	-0.4771
-4.9355 Daalane	-0.6858
-5.2366 Daalanee	-0.4770
-5.2366 Daalataa	-0.4761
-4.7595 Daalate	-0.6986
-4.1952 Daale	-1.1441
-4.3335 Daalee	-1.0136
-5.2366 Daalee^|	-0.4756
-4.2823 Daalee|	-1.0524
-4.9355 Daale|	-0.6018
-4.9355 Daalie|	-0.5761
-5.2366 Daaloo*gaa|	-0.4512
-4.5376 DaaoonaloD	-0.9915
-5.2366 DaaunaloD	-0.4764
-4.0325 DaayamaND	-1.2787
-3.9813 Dabbe	-1.2933
-4.9355 Dalaa	-0.6014
-4.9355 Dale	-0.6020
-5.2366 Daolar	-0.4718
-4.2823 Dar	-1.1417
-4.9355 Daraa	-0.5943
-4.9355 Darakar	-0.6021
-4.6345 Darane	-0.8445
-3.5042 De	-1.7447
-4.2366 DeDh.	-1.1132
-4.1952 Deelaks	-1.1138
-4.9355 DeeleeT	-0.5967
-4.3335 Deezal	-0.9946
-5.2366 Deree	-0.4771
-4.3335 DezarT	-0.9934
-5.2366 De|	-0.4512
-4.1226 Dh*kee	-1.1761
-5.2366 Dh.^g	-0.4705
-4.6345 Dh^g	-0.8326
-4.9355 Dhaa^che	-0.5983
-4.0325 Dhaaee	-1.2778
-4.9355 Dhak	-0.5983
-4.2823 Dhakee	-1.0791
-5.2366 Dhalaan	-0.4737
-5.2366 DheeDhataa	-0.4739
-5.2366 Dheelee	-0.4771
-5.2366 Dher	-0.4769
-4.9355 Dho	-0.6013
-5.2366 Dho^g	-0.4767
-3.8748 Dhoo*Dhane	-1.4065
-4.2366 DiTel	-1.0790
-4.0325 Digree	-1.2552
-4.9355 DijiT	-0.6017
-5.2366 DijiTal	-0.4769
-5.2366 Dileeshiyas	-0.4737
-5.2366 Dipe^D	-0.4769
-4.9355 DisTrikT	-0.6020
-3.4657 Domen	-1.8954
-4.9355 Doo	-0.6986
-4.1226 Dor	-1.1694
-3.5645 Draaeevar	-1.7057
-4.9355 Draamaa	-0.6019
-5.2366 Dregan	-0.4771
-5.2366 Dubaane	-0.4713
-4.9355 Dulatee	-0.6019
-4.9355 RiShi	-0.6903
-4.2823 RiShikesh	-1.0732
-4.0904 T^kaN	-1.2263
-3.7314 T^kee	-1.5437
-4.4584 Taa*ge	-0.9031
-3.9355 TaaTaa	-1.3617
-4.9355 Taa^y	-0.6990
-5.2366 Taaeem	-0.4771
-4.9355 Taaeep	-0.6018
-4.9355 Taaimee^g	-0.5987
-3.7452 Taaip	-1.5534
-5.2366 Taalate	-0.4765
-4.3335 Taapoo	-0.9958
-4.9355 Tahal	-0.6009
-4.3335 Tahalane	-0.9942
-3.7742 Taig	-1.5482
-4.9355 Taik	-0.6020
-5.2366 Taikaneek	-0.4771
-4.4584 Taiksee	-0.9024
-4.9355 TaisT	-0.6984
-4.9355 TaisTi^g	-0.6854
-4.5376 Takkar	-0.9490
-4.3335 Taop	-1.1003
-4.1574 Taorch	-1.2481
-4.7595 Tashan	-0.7667
-3.9355 Taveraa	-1.3711
-5.2366 Te^shan	-0.4770
-4.1574 Tebal	-1.1649
-3.6803 Tee	-1.6123
-4.9355 Teekaa	-0.6020
-4.7595 Teem	-0.7613
-3.1647 Teknaolojee	-2.0437
-4.6345 Teleephon	-0.7781
-4.0605 Tenshan	-1.2822
-4.5376 Tep	-0.9018
-4.9355 TesT	-0.6014
-3.4512 Th^D	-1.8057
-4.1952 Th^Dee	-1.1139
-3.8564 ThaND	-1.4560
-4.1952 ThaNDaa	-1.1387
-4.0904 Thaak	-1.3165
-4.2823 Thaan	-1.0408
-4.7595 Thaharaa	-0.8439
-3.9813 Thaharane	-1.2957
-4.2823 Thahare	-1.0388
-5.2366 ThanDak	-0.4730
-5.2366 Thas	-0.4771
-5.2366 Thasaa	-0.4771
-3.3732 Theek	-1.9252
-5.2366 Theeyaa	-0.4771
-5.2366 Theke	-0.4737
-4.1952 Thikaane	-1.1127
-4.1952 Thoos	-1.1133
-4.1952 Thoosanaa	-1.1139
-5.2366 ThuDDhe	-0.4771
-3.4372 TikaT	-1.8377
-3.4237 TikaTe^	-1.8554
-3.8052 Tin	-1.4771
-4.1574 Tip	-1.1711
-4.5376 TippaNee	-0.9908
-4.4584 TippaNiyaa*	-0.9952
-4.1952 Too	-1.2041
-5.2366 TooTaa	-0.4744
-4.1226 ToorisT	-1.1761
-5.2366 Too|	-0.4771
-3.5553 Topee	-1.7160
-4.9355 Topiyaa*	-0.6021
-4.4584 ToyoTaa	-0.8973
-4.5376 Traa^saphar	-0.9896
-3.4657 Traaee	-1.7976
-5.2366 Traansafar	-0.4771
-4.2823 Traifik	-1.0346
-4.0061 Traik	-1.3010
-4.1226 Traiki^g	-1.1760
-4.7595 Traipha़िk	-0.8446
-4.9355 Traival	-0.6990
-4.4584 Traivalar	-0.8973
-4.9355 Treki^g	-0.6018
-3.1502 Tren	-2.0986
-5.2366 Trim	-0.4769
-4.0904 Trip	-1.2268
-3.9813 Tu	-1.3010
-4.3335 TukaD.e	-0.9995
-5.2366 TvaaeelaaeeT	-0.4771
-5.2366 a	-0.4771
-4.3335 aDDaa	-0.9999
-4.3335 aDDe	-0.9966
-4.9355 aDeeDaas	-0.5943
-4.2366 aDh.aaee	-1.0784
-3.3792 aDhaaee	-1.8685
-4.1952 aTaa	-1.1137
-4.1574 aTakaa	-1.1455
-5.2366 a^daaz	-0.4771
-3.3915 a^dar	-1.9125
-5.2366 a^dhavishvaaso^	-0.4737
-3.6803 a^dheraa	-1.6166
-4.2823 a^dhere	-1.0615
-3.9813 a^gareja़ीkaraN	-1.2997
-3.9813 a^gareja़ीnumaa	-1.3010
-4.9355 a^gochhe	-0.6021
-4.6345 a^gooraa	-0.8451
-5.2366 a^greja़ी	-0.4663
-3.6568 a^grejee	-1.6101
-3.9813 a^grez	-1.3007
-3.1912 a^grezee	-2.0361
-3.5376 a^k	-1.7127
-4.0904 a^kal	-1.2676
-5.2366 a^kalo^	-0.4739
-4.0325 a^t	-1.2671
-3.9813 a^taaxaree	-1.3090
-5.2366 a^tar	-0.4722
-4.9355 a^tarjaal	-0.5952
-3.9813 a^tarraaShTreey	-1.3010
-4.1226 a^tim	-1.2550
-2.6672 aa	-2.5835
-4.4584 aa*kh	-0.9027
-4.9355 aa*khe^	-0.6020
-4.9355 aaD.	-0.5912
-3.2543 aaDiyo	-1.9910
-3.4041 aaTh	-1.8831
-4.7595 aa^Tiyaa*	-0.8420
-4.4584 aabaadee	-0.9028
-4.1952 aabhaar	-1.1139
-5.2366 aabhaar|	-0.4512
-5.2366 aabhaas	-0.4767
-4.9355 aabhooShaN	-0.6013
-4.9355 aachaary	-0.6012
-4.1574 aadaan	-1.1461
-5.2366 aadamee	-0.4694
-5.2366 aadar	-0.4718
-3.7181 aadat	-1.5951
-4.1574 aadataanusaar	-1.1758
-3.6568 aadhaa	-1.6228
-4.3915 aadhaar	-0.9508
-5.2366 aadhaarit	-0.4756
-3.7181 aadhe	-1.5669
-4.9355 aadhee	-0.6020
-2.8786 aadi	-2.3578
-4.9355 aadidaas	-0.6912
-3.2543 aae	-2.0065
-3.9578 aae*ge	-1.3691
-3.1647 aaee	-2.0982
-4.5376 aaeeDiyaa	-0.9486
-4.7595 aaeeTee	-0.7781
-4.2366 aaee^	-1.0758
-4.9355 aaee^|	-0.5761
-4.9355 aaeekaann	-0.6974
-4.5376 aaee|	-0.9272
-4.6345 aaegaa	-0.8320
-4.2366 aaegaa|	-1.1175
-4.9355 aaegee	-0.6014
-4.3335 aae|	-0.9994
-5.2366 aafat	-0.4755
-5.2366 aafat|	-0.4754
-3.6133 aag	-1.6556
-4.1952 aagYaa	-1.1137
-2.8133 aage	-2.4047
-4.9355 aahaT	-0.6020
-4.4584 aahaa	-0.9029
-5.2366 aahat	-0.4770
-5.2366 aahistaa	-0.4771
-5.2366 aais	-0.4771
-3.6345 aaj	-1.7011
-3.8564 aajakal	-1.4408
-5.2366 aaja़ाdee	-0.4718
-4.1952 aajoo	-1.1139
-4.2366 aakRti	-1.0750
-3.9355 aakaar	-1.3536
-3.8216 aakar	-1.5632
-4.1226 aakarShak	-1.1741
-4.9355 aakarShit	-0.6983
-4.1574 aakhir	-1.1746
-3.4237 aakhirakaar	-1.8799
-4.7595 aakhiree	-0.8371
-4.1952 aakhyaayan	-1.1139
-5.2366 aalasy	-0.4739
-4.3335 aam	-1.1137
-5.2366 aamanaa	-0.4771
-4.9355 aamataur	-0.5987
-3.4105 aan^d	-1.8583
-4.1574 aanaa	-1.1754
-4.1952 aanan	-1.1139
-4.3335 aananafaanan	-0.9999
-3.8564 aanand	-1.4465
-4.1952 aanaphaanan	-1.1139
-3.3228 aane	-1.9305
-4.9355 aanee	-0.6020
-4.9355 aao	-0.6009
-4.4584 aaooTaluk	-0.9031
-2.7653 aap	-2.4888
-5.2366 aap\	-0.4739
-3.3853 aapakaa	-1.9150
-3.3558 aapake	-1.9797
-3.6455 aapakee	-1.7368
-2.8902 aapako	-2.3525
-3.3558 aapane	-1.9348
-4.1952 aapas	-1.1031
-3.9144 aapase	-1.4138
-5.2366 aaphat|	-0.4765
-4.0605 aar	-1.2696
-5.2366 aarTs	-0.4766
-3.8941 aar^bh	-1.4472
-3.6238 aaraam	-1.6462
-4.3335 aaraamadaayak	-1.0410
-4.1226 aaraamadeh	-1.1756
-3.6031 aarambh	-1.6875
-4.1952 aaraxaN	-1.1062
-4.2366 aaraxit	-1.0791
-5.2366 aaryan	-0.4771
-4.7595 aas	-0.7775
-4.0605 aasaan	-1.3247
-3.5834 aasapaas	-1.7649
-4.9355 aasapaas|	-0.5761
-3.3732 aashaa	-1.8781
-5.2366 aashaae*	-0.4752
-3.8941 aashchary	-1.4399
-3.9813 aashcharyaa^vit	-1.2969
-3.9355 aasheeSh	-1.3165
-4.7595 aashram	-0.8259
-5.2366 aask	-0.4771
-5.2366 aat	-0.4755
-4.1226 aat^kit	-1.1719
-3.3501 aataa	-1.8876
-3.9355 aataa|	-1.3422
-3.4807 aate	-1.8218
-3.6455 aatee	-1.6685
-3.7452 aatee|	-1.5248
-5.2366 aate|	-0.4756
-4.2823 aatishabaaziyaa*	-1.0356
-5.2366 aatur	-0.4766
-4.9355 aavaajaahee	-0.6013
-3.8564 aavaaz	-1.5001
-4.9355 aavaaze^	-0.6020
-3.6925 aavashyak	-1.6274
-3.7595 aavashyakataa	-1.5202
-3.0693 aayaa	-2.1610
-3.9578 aayaa|	-1.3163
-5.2366 aayad	-0.4771
-5.2366 aayad|	-0.4768
-3.6803 aayarish	-1.5908
-5.2366 aaye^ge	-0.4709
-4.7595 aayegaa	-0.7781
-4.9355 aayegaa…	-0.5761
-3.9813 aayegee|	-1.2751
-4.3335 aayojan	-0.9993
-3.9813 aayojit	-1.2952
-5.2366 aayu	-0.4764
-3.9813 aazaad	-1.3007
-2.4628 ab	-2.7677
-4.6345 abaauT	-0.9542
-4.9355 abatak	-0.6015
-4.9355 abhaav	-0.5912
-2.9227 abhee	-2.3326
-4.7595 abhivyakti	-0.7691
-3.8941 achaanak	-1.4110
-5.2366 achachhee	-0.4771
-3.0434 achchhaa	-2.2271
-5.2366 achchhaa|	-0.4766
-3.2588 achchhe	-1.9964
-3.1294 achchhee	-2.1500
-4.3335 ach‍chhaa	-0.9999
-5.2366 adaa	-0.4771
-5.2366 adanaa	-0.4770
-4.4584 adhaleTee	-0.9031
-4.9355 adheerataa	-0.5954
-3.0010 adhik	-2.2938
-3.9355 adhikaar	-1.3658
-4.0605 adhikaaree	-1.4037
-4.9355 adhikaariyo^	-0.5988
-4.7595 adhikaaro^	-0.7691
-5.2366 adhikatam	-0.4769
-3.6133 adhikatar	-1.6876
-5.2366 adhik|	-0.4512
-4.3335 adhyaapikaa	-1.2115
-5.2366 adviteey	-0.4771
-4.9355 afalaatoon	-0.6729
-4.9355 agYaan	-0.6922
-4.2366 agalaa	-1.1138
-3.0271 agale	-2.2109
-3.4962 agalee	-1.7700
-4.3915 agar	-1.1093
-4.9355 agast	-0.5912
-4.3335 agavaa	-0.9987
-5.2366 agr	-0.4747
-5.2366 aham	-0.4755
-5.2366 aiD	-0.4771
-4.3335 ai^Th	-0.9997
-5.2366 aire	-0.4771
-4.9355 ais	-0.5972
-2.8961 aisaa	-2.3677
-3.3389 aise	-1.9646
-3.4170 aisee	-1.8864
-4.7595 aitihaasik	-0.7713
-4.9355 ajab	-0.6020
-3.0519 ajamer	-2.1529
-4.5376 ajee	-0.9954
-4.1574 ajeeb	-1.2228
-4.6345 akabar	-0.7778
-4.3915 akelaa	-0.9975
-4.7595 akele	-0.7710
-5.2366 akelee	-0.4771
-3.9144 akl	-1.4003
-3.6803 aksar	-1.5796
-5.2366 aktoobar	-0.4663
-5.2366 alTraa	-0.4771
-5.2366 alTraasaau^D	-0.4771
-4.7595 alTraasonik	-0.6989
-5.2366 alaap	-0.4761
-5.2366 alaapoge	-0.4724
-3.7894 alaarm	-1.5043
-3.6133 alag	-1.7127
-4.3335 alakan^daa	-0.9946
-3.6925 alavidaa	-1.5837
-4.1574 alkaa	-1.1453
-3.6925 almoD.aa	-1.6002
-3.8216 almoDa़ा	-1.4471
-5.2366 alphaajo^	-0.4705
-4.9355 amal	-0.6018
-5.2366 ameetajee	-0.4764
-4.0061 amerikan	-1.3008
-5.2366 amerikee	-0.4771
-3.8941 amit	-1.4454
-3.3281 amitajee	-1.9081
-5.2366 amitavaa	-0.4768
-5.2366 amool	-0.4713
-4.0904 amooman	-1.2294
-3.6568 anaa	-1.6020
-3.9813 anaadar	-1.2952
-4.9355 anaavashyak	-0.6021
-5.2366 anamane	-0.4767
-5.2366 andhavishvaas	-0.4767
-4.9355 andhavishvaasee	-0.6015
-4.7595 aneko^	-0.8191
-5.2366 anivaary	-0.4722
-4.7595 anooThaa	-0.7777
-4.7595 anoop	-0.8443
-3.8386 anubhav	-1.5369
-5.2366 anubhavee	-0.4746
-4.9355 anubhooti	-0.6021
-5.2366 anuchit	-0.4716
-4.9355 anumaan	-0.6014
-4.3335 anupasthitee	-1.0000
-5.2366 anupasthiti	-0.4694
-4.4584 anuroop	-0.9031
-3.7894 anusaar	-1.5980
-2.9144 any	-2.3660
-4.1952 anyathaa	-1.2761
-3.1502 aoTo	-2.0982
-5.2366 aoTomaiTikalee	-0.4703
-5.2366 aof	-0.4771
-3.9813 aofis	-1.2957
-4.1952 aofisar	-1.1120
-5.2366 aolso	-0.4771
-4.9355 aonalaaeen	-0.6871
-4.6345 aonalaain	-0.9031
-5.2366 aopareTar	-0.4769
-5.2366 aopareTaro^	-0.4756
-4.6345 aopareTi^g	-0.7781
-4.9355 aophis	-0.6854
-3.6133 aorDar	-1.6618
-5.2366 ap	-0.4703
-4.1226 apaDeT	-1.2487
-5.2366 apagreD	-0.4764
-4.2366 apaloD	-1.0792
-3.4884 apan	-1.7924
-3.0113 apanaa	-2.2863
-4.2366 apanaanaa	-1.0789
-5.2366 apanaao	-0.4770
-2.5376 apane	-2.7088
-2.7941 apanee	-2.5157
-5.2366 apavaado^	-0.4739
-5.2366 apeel	-0.4771
-4.4584 apexaa	-0.8922
-4.0605 apexit	-1.2979
-3.6925 aprail	-1.5796
-5.2366 apriy	-0.4746
-5.2366 apsaraa	-0.4771
-4.9355 araajakavaad	-0.6020
-5.2366 arasaa	-0.4759
-5.2366 arase	-0.4759
-4.7595 ardh	-0.7781
-3.7051 are	-1.6014
-3.9813 arjun	-1.2978
-3.9813 arjunaa	-1.3005
-3.7452 arth	-1.5494
-4.9355 arthaat‌	-0.6977
-5.2366 arz	-0.4769
-4.1952 asamarthataa	-1.1139
-4.2823 asar	-1.1453
-4.9355 asarakaaree	-0.5965
-4.2366 ashvo^	-1.0785
-4.3335 ast	-0.9975
-4.2366 at	-1.0791
-3.2072 ati	-2.0486
-3.7051 atirikt	-1.6173
-4.0605 atul	-1.2776
-3.7894 atyadhik	-1.5049
-4.9355 atyant	-0.6020
-1.8078 aur	-3.3569
-4.4584 auro^	-0.9016
-5.2366 aur|	-0.4709
-5.2366 avadhi	-0.4746
-5.2366 avagat	-0.4771
-4.1226 avasar	-1.1758
-3.5123 avashy	-1.8285
-4.1226 avashy|	-1.1501
-4.4584 avasthaa	-0.8922
-5.2366 avelebal	-0.4771
-5.2366 avyavasthit	-0.4771
-5.2366 axar	-0.4769
-4.6345 axaragraam	-0.9414
-5.2366 aा	-0.4761
-4.9355 aाge	-0.6932
-5.2366 aाp	-0.4769
-5.2366 aाpake	-0.4771
-4.3335 b^Taanaa	-1.0000
-3.7742 b^d	-1.5391
-5.2366 b^daa	-0.4770
-4.9355 b^de	-0.6005
-5.2366 b^dhu	-0.4771
-4.4584 b^galooroo	-0.8964
-3.2728 baD.aa	-1.9998
-3.1538 baD.abaD.	-2.0671
-3.3228 baD.e	-1.9637
-3.1759 baD.ee	-2.1216
-3.8216 baDaa	-1.4469
-3.9813 baDa़ा	-1.3006
-5.2366 baDa़ी	-0.4771
-5.2366 baDe	-0.4771
-4.3335 baDee	-0.9999
-3.3915 baDh.	-1.8922
-4.9355 baDh.aa	-0.6910
-5.2366 baDh.aanee	-0.4756
-3.9578 baDh.aayaa	-1.3401
-4.9355 baDh.ane	-0.5963
-3.8564 baDh.ate	-1.4447
-5.2366 baDh.atee	-0.4762
-3.7595 baDh.e	-1.5437
-4.9355 baDh.e^ge	-0.6020
-3.0936 baDh.iyaa	-2.1535
-4.9355 baDha़	-0.6010
-5.2366 baDha़ा	-0.4763
-4.7595 baDha़िyaa	-0.8442
-3.9144 baDhiyaa	-1.3707
-4.7595 baDhi़yaa	-0.7780
-4.9355 baT	-0.6987
-4.7595 baTan	-0.7747
-4.9355 baTuvaa	-0.6017
-4.9355 baa*dh	-0.6007
-4.1952 baa*dhane	-1.1134
-4.9355 baa*dhe|	-0.5761
-4.9355 baa^dhavagaDh.	-0.5943
-4.6345 baa^glaa	-0.8405
-3.8386 baabaa	-1.4433
-3.4041 baaboo	-1.8596
-5.2366 baaboo|	-0.4512
-2.6389 baad	-2.5913
-3.9813 baadaam	-1.2942
-4.2366 baadal	-1.0772
-4.9355 baadalo^	-0.5952
-4.9355 baadashaah	-0.6020
-5.2366 baadhaaee	-0.4771
-5.2366 baadhy	-0.4722
-5.2366 baae*	-0.4771
-5.2366 baaee	-0.4770
-5.2366 baaeek	-0.4694
-3.6238 baag.	-1.6060
-4.1226 baagh	-1.1761
-3.1260 baahar	-2.1501
-3.9355 baaharee	-1.3424
-4.7595 baaiTs	-0.8371
-4.9355 baajaar	-0.6017
-5.2366 baajee	-0.4763
-3.8386 baajoo	-1.4293
-3.4657 baakee	-1.8502
-4.1226 baakiyo^	-1.2178
-4.0325 baalTee	-1.2678
-4.9355 baalkanee	-0.5954
-2.7509 baar	-2.4739
-4.1226 baarah	-1.2474
-2.5682 baare	-2.6610
-2.5446 baat	-2.6381
-3.7742 baatacheet	-1.4993
-3.6568 baate^	-1.6150
-4.7595 baato^	-0.7695
-5.2366 baavajood	-0.4764
-4.3335 baavalaa	-0.9999
-3.3915 baazaar	-1.8514
-4.9355 baazee	-0.5943
-4.6345 bach	-0.8438
-4.2823 bachaa	-1.1056
-5.2366 bachapan	-0.4705
-4.2366 bachche	-1.1062
-4.4584 bache	-0.9024
-4.9355 bachee	-0.6020
-4.1952 badal	-1.1440
-2.9041 badalaav	-2.3077
-4.9355 badalataa	-0.5965
-5.2366 badale	-0.4718
-4.4584 badan	-0.9030
-4.1952 badastoor	-1.1138
-3.8052 badhaaee	-1.5399
-4.2823 badhaaeeyaa*	-1.0346
-5.2366 badhaaee|	-0.4771
-4.9355 badtameez	-0.5952
-5.2366 badtameezee	-0.4703
-5.2366 bad‌kismat	-0.4722
-5.2366 bad‍tameezee	-0.4718
-4.0904 bagal	-1.2191
-5.2366 bagiyaa	-0.4739
-4.3335 bah	-0.9987
-5.2366 bahaa	-0.4769
-5.2366 bahaanaa	-0.4771
-4.2366 bahaane	-1.0785
-5.2366 bahaav	-0.4739
-4.3335 bahakar	-0.9999
-4.1952 bahan	-1.1107
-3.4442 baharahaal	-1.8770
-4.5376 bahas	-0.9381
-5.2366 bahatee	-0.4771
-5.2366 bahegee	-0.4512
-2.5464 bahut	-2.7162
-4.1226 baiTaree	-1.1707
-3.3072 baiTh	-1.9825
-3.6803 baiThaa	-1.6249
-4.4584 baiThaa|	-0.9029
-3.8941 baiThane	-1.3867
-5.2366 baiThatee	-0.4716
-3.0752 baiThe	-2.1883
-3.9578 baiThee	-1.3409
-5.2366 baiTho	-0.4722
-3.2280 baig	-2.0287
-5.2366 bair	-0.4744
-4.4584 bairaa	-0.9031
-4.4584 baire	-0.8998
-5.2366 bairee	-0.4771
-3.5553 baj	-1.7054
-4.1952 bajaT	-1.1073
-4.3335 bajaa	-0.9923
-5.2366 bajaae	-0.4769
-4.4584 bajaataa	-0.9031
-5.2366 bajaay	-0.4771
-3.7181 bajakar	-1.5560
-3.9578 bajane	-1.3114
-3.8941 bajate	-1.3941
-3.1502 baje	-2.1111
-5.2366 bakhiyaa	-0.4771
-5.2366 balaa	-0.4705
-4.3335 balageer	-0.9975
-4.9355 balb	-0.6015
-4.9355 balki	-0.6979
-3.6684 ban	-1.6404
-3.5738 banaa	-1.7433
-4.7595 banaae	-0.8444
-4.9355 banaae^	-0.6014
-4.6345 banaane	-0.8918
-5.2366 banaanee	-0.4746
-4.2823 banaayaa	-1.0403
-4.4584 banaayaa|	-0.9028
-4.0325 banaa|	-1.2551
-4.2366 banane	-1.1077
-4.7595 banataa	-0.7716
-5.2366 banavaayaa	-0.4761
-4.0061 band	-1.3567
-4.6345 bandaa	-0.9019
-5.2366 bande	-0.4756
-3.9813 bane	-1.3409
-4.4584 bane^|	-0.9023
-3.9578 banee	-1.3418
-4.1952 banee|	-1.1138
-4.6345 banegaa	-0.9005
-5.2366 bane|	-0.4771
-5.2366 baniyaan	-0.4730
-5.2366 baoDee	-0.4771
-4.3335 baoy	-1.1137
-4.6345 baraabar	-0.8340
-4.3335 barakaraar	-0.9973
-5.2366 baras	-0.4663
-3.8564 barasaat	-1.4288
-4.3335 bardaasht	-0.9951
-3.8941 barf	-1.4373
-4.3335 barfeelaa	-0.9998
-4.1226 barph	-1.1761
-3.9578 bartaav	-1.3414
-3.8941 barth	-1.3977
-3.0036 bas	-2.2451
-5.2366 basaa	-0.4746
-4.4584 basee	-0.9029
-5.2366 baso^	-0.4713
-4.1574 bastee	-1.1744
-3.3445 bataa	-1.9217
-4.2823 bataae	-1.0784
-4.7595 bataae*ge	-0.7724
-5.2366 bataae*|	-0.4512
-4.9355 bataae^	-0.6680
-5.2366 bataaee|	-0.4769
-4.1226 bataaie	-1.1693
-4.7595 bataanaa	-0.7692
-4.2823 bataane	-1.0997
-5.2366 bataanee	-0.4752
-5.2366 bataataa	-0.4755
-4.2366 bataau*gaa	-1.0790
-4.2366 bataau*gaa|	-1.0532
-5.2366 bataavaa	-0.4512
-3.2543 bataayaa	-2.0030
-3.8216 bataaye	-1.4452
-4.9355 batakhe^	-0.5979
-5.2366 batalaanaa	-0.4716
-4.9355 bataqho^	-0.5943
-4.9355 batiyaa	-0.6010
-4.2823 batiyaate	-1.0403
-5.2366 battee	-0.4765
-4.1952 bayaan	-1.1405
-5.2366 beDh^gaa	-0.4716
-3.5834 be^gaaNee	-1.6461
-5.2366 beakl	-0.4768
-5.2366 beaklee	-0.4767
-4.2823 bech	-1.0780
-4.3335 bechaaraa	-0.9987
-4.6345 bechaare	-0.9027
-4.9355 bechaaro^	-0.5943
-4.2823 bechane	-1.0707
-3.9813 bee	-1.3010
-5.2366 beeTaa	-0.4663
-5.2366 beebeesee	-0.4771
-3.5290 beech	-1.7516
-5.2366 beecho	-0.4770
-4.1226 beemaar	-1.2303
-5.2366 been	-0.4771
-5.2366 beesee	-0.4718
-4.9355 beet	-0.6009
-4.7595 beetaa	-0.7780
-4.9355 beetaa|	-0.6020
-4.7595 beetate	-0.6970
-4.0325 beetee	-1.2545
-4.3335 beetee|	-0.9997
-4.6345 beeyar	-0.8339
-3.7595 behatar	-1.5172
-3.7452 bekaar	-1.5605
-5.2366 bekhabar	-0.4722
-4.9355 ben	-0.6005
-5.2366 benaam	-0.4512
-5.2366 beparavaah	-0.4771
-4.2823 besabree	-1.0347
-4.0325 beshak	-1.3424
-4.3335 besudh	-0.9998
-4.0904 betavaa	-1.2461
-4.7595 bevakoof	-0.7773
-5.2366 bevakooph	-0.4771
-5.2366 bh^g	-0.4713
-4.0061 bhaTakane	-1.2710
-4.4584 bhaTake	-0.9018
-4.9355 bhaa*p	-0.5943
-4.2823 bhaaD.	-1.0413
-2.9355 bhaaShaa	-2.2843
-3.9813 bhaaShaagat	-1.3010
-4.9355 bhaaShaao^	-0.6802
-3.9813 bhaaShee	-1.3001
-4.9355 bhaaTiyaa	-0.6017
-4.5376 bhaa^ti	-0.9978
-5.2366 bhaaaee	-0.4768
-3.2453 bhaaee	-2.0510
-3.9355 bhaaeeband	-1.3423
-4.5376 bhaaee|	-0.8191
-2.2552 bhaag	-2.9393
-3.8216 bhaagaa	-1.4623
-4.9355 bhaagat	-0.6014
-5.2366 bhaagate	-0.4730
-5.2366 bhaage^	-0.4709
-5.2366 bhaagegee	-0.4770
-4.1952 bhaago	-1.1139
-4.9355 bhaai|	-0.5761
-4.1226 bhaaloo	-1.1759
-2.9185 bhaarat	-2.2938
-2.8052 bhaarateey	-2.4138
-3.2543 bhaarateeyataa	-1.9854
-3.9355 bhaarateeyo^	-1.3544
-4.9355 bhaaree	-0.6018
-4.3915 bhaav	-1.1113
-5.2366 bhaavanaa	-0.4764
-5.2366 bhaavee	-0.4771
-5.2366 bhaayaa	-0.4771
-4.9355 bhaaye	-0.5958
-4.2823 bhadr	-1.0414
-3.2823 bhaee	-2.0030
-5.2366 bhaeeyaa	-0.4770
-4.9355 bhaeeye	-0.6008
-4.1952 bhagaa	-1.1132
-3.7595 bhagaae*	-1.5049
-4.5376 bhagaane	-0.8895
-5.2366 bhagaaoo	-0.4771
-4.9355 bhagaayaa	-0.6018
-4.7595 bhagavaan	-0.8334
-4.3335 bhageerathee	-0.9932
-5.2366 bhaiyaa	-0.4762
-5.2366 bhaiye	-0.4762
-4.1952 bhaiyyaa	-1.1130
-4.2366 bhakt	-1.0790
-4.2366 bhaktajan	-1.0791
-4.9355 bhakti	-0.6021
-3.8564 bhalaa	-1.4124
-4.9355 bhanak	-0.5979
-3.7314 bhar	-1.5511
-4.9355 bharaa	-0.5972
-4.9355 bharamaar	-0.6006
-4.3335 bharapeT	-0.9998
-4.3335 bharapoor	-0.9996
-5.2366 bharasak	-0.4771
-5.2366 bharat	-0.4718
-4.2366 bhare	-1.1450
-5.2366 bharee	-0.4769
-4.4584 bharosaa	-0.9018
-5.2366 bhartee	-0.4768
-5.2366 bhautik	-0.4771
-4.6345 bhaviShy	-0.7673
-4.5376 bhavy	-0.9527
-4.1226 bhay	-1.1761
-3.5042 bhe^Tavaartaa	-1.7520
-2.0209 bhee	-3.1266
-3.6031 bheeD.	-1.6821
-3.7314 bheemataal	-1.5294
-4.9355 bhee|	-0.6017
-4.3915 bhej	-1.1123
-5.2366 bhejanaa	-0.4770
-4.7595 bhejane	-0.7774
-4.7595 bhejataa	-0.8310
-4.2823 bhejee	-1.1178
-5.2366 bheje|	-0.4758
-5.2366 bhiD.	-0.4760
-5.2366 bhijavaayaa	-0.4703
-4.9355 bhinabhinaate	-0.6001
-3.3853 bhojan	-1.8897
-4.3335 bhojanaalay	-0.9891
-4.1226 bhookh	-1.1920
-4.0325 bhool	-1.3345
-4.9355 bhoolanaa	-0.6977
-4.9355 bhoole|	-0.5761
-4.9355 bhoomi	-0.6006
-5.2366 bhoomikaa	-0.4771
-3.9813 bhoore	-1.3010
-4.7595 bhoot	-0.7781
-5.2366 bhraa^tiyo^	-0.4705
-4.0904 bhugat	-1.2301
-3.8564 bhugataan	-1.4137
-4.0605 bhugatanaa	-1.2551
-4.6345 bhullaa	-0.7781
-4.9355 bhunabhunaahaT	-0.6890
-4.9355 bhuvaneshvar	-0.6021
-4.6345 biThaa	-0.9029
-4.9355 bi^daas	-0.5983
-4.9355 bichhaDane	-0.5987
-4.9355 bichhaa	-0.6019
-4.9355 bigaD.	-0.6010
-5.2366 bigaaD.	-0.4767
-4.1226 bijalee	-1.1759
-4.2366 bijanaur	-1.1028
-4.4584 bikharaa|	-0.9030
-4.5376 bil	-1.0209
-3.6684 bilakul	-1.6262
-4.7595 bilakul|	-0.6730
-3.8748 bilkul	-1.4148
-3.3072 binaa	-1.9999
-3.8216 binasar	-1.4615
-4.1952 binsar	-1.1132
-4.1952 binsar|	-1.1136
-5.2366 biraadaree	-0.4771
-4.6345 biskuT	-0.8397
-3.8052 bistar	-1.4939
-3.7452 bistaro^	-1.5151
-4.7595 bitaa	-0.7753
-4.9355 bitaaee	-0.6018
-4.1574 bitaane	-1.1625
-4.1574 blaag	-1.1727
-5.2366 blaik	-0.4771
-3.0491 blaog	-2.1992
-3.5645 blaogar	-1.7308
-5.2366 blaogaro^	-0.4705
-3.2543 blaogi^g	-1.9653
-4.7595 blaogo^	-0.8360
-5.2366 blaogs	-0.4770
-4.2366 blaok	-1.0737
-4.3335 blek	-1.0000
-3.7181 bogee	-1.5416
-5.2366 bohut	-0.4771
-3.7314 bol	-1.5970
-3.3673 bolaa	-1.8889
-4.0061 bolanaa	-1.2972
-4.9355 bolane	-0.6021
-4.6345 bolataa	-0.8446
-3.9813 bolate	-1.2991
-3.3792 bole	-1.8740
-3.9813 bole^	-1.2948
-4.3335 bolee	-0.9952
-5.2366 bolie	-0.4512
-5.2366 boliyaa*	-0.4770
-5.2366 boochh	-0.4764
-4.9355 bor	-0.5979
-4.2823 borD	-1.0732
-5.2366 bosT	-0.4771
-4.0904 botal	-1.2489
-4.9355 botale^	-0.6020
-4.9355 braaiT	-0.6021
-5.2366 braaooja़r	-0.4663
-5.2366 braaoozar	-0.4663
-5.2366 braauzar	-0.4722
-4.4584 brahmaa	-0.9027
-4.2823 brahmaaND	-1.0408
-5.2366 buDDhe	-0.4771
-5.2366 buDhaapaa	-0.4769
-4.9355 budabudaa	-0.5943
-5.2366 bujurg	-0.4766
-4.3335 bujurgavaar	-0.9934
-4.0061 buk	-1.2787
-5.2366 bukhaaraa	-0.4771
-5.2366 bukhaare	-0.4737
-3.7051 buki^g	-1.5930
-4.0061 bulaa	-1.2998
-4.4584 buraa	-0.9955
-4.9355 bure	-0.6020
-4.2366 buzurgo^	-1.0776
-5.2366 bvaoyz	-0.4694
-4.1952 ch^DeegaDh.	-1.1073
-4.9355 chaDDhee	-0.5952
-4.9355 chaDh.	-0.5943
-3.7051 chaDh.aa	-1.5818
-3.8052 chaDh.aaee	-1.5117
-4.6345 chaDh.aane	-0.7704
-4.6345 chaDh.ane	-0.8283
-4.9355 chaDh.e	-0.6014
-4.3335 chaNDeegaDh.	-0.9934
-4.7595 chaTanee	-0.7779
-4.4584 chaadar	-0.9925
-3.6684 chaahataa	-1.6410
-3.8386 chaahate	-1.4620
-4.4584 chaahe	-1.0344
-4.0904 chaahie	-1.3207
-5.2366 chaahie|	-0.4512
-4.9355 chaahie…maatr	-0.6018
-3.5042 chaahiye	-1.7330
-4.9355 chaakoo	-0.6015
-5.2366 chaalaan	-0.4771
-4.1226 chaalak	-1.2006
-3.7595 chaalees	-1.5181
-3.7894 chaaloo	-1.5465
-4.1952 chaandanee	-1.1071
-3.4962 chaar	-1.7979
-4.1226 chaarjar	-1.1757
-3.7051 chaay	-1.6206
-4.3335 chahalapahal	-0.9958
-4.0061 chaiT	-1.3378
-4.1952 chaik	-1.1132
-4.1952 chaikaaooT	-1.1132
-3.7314 chain	-1.5315
-5.2366 chak	-0.4766
-5.2366 chakaa	-0.4771
-4.0904 chakkar	-1.3597
-5.2366 chakkaro^	-0.4663
-3.8941 chakr	-1.3719
-4.9355 chakro^	-0.5967
-5.2366 chak‌	-0.4768
-2.9102 chal	-2.3491
-2.9671 chalaa	-2.2678
-5.2366 chalaaee	-0.4756
-5.2366 chalaane	-0.4694
-4.1574 chalaao	-1.1692
-5.2366 chalaate	-0.4752
-5.2366 chalaayaa	-0.4709
-4.9355 chalaaye	-0.5952
-5.2366 chalan	-0.4771
-4.1952 chalanaa	-1.1736
-3.3445 chalane	-1.9269
-4.0605 chalataa	-1.3293
-4.6345 chalate	-0.9541
-4.4584 chalatee	-1.0409
-3.4170 chale	-1.8590
-4.2823 chale^ge	-1.0784
-4.3335 chalee	-1.1128
-5.2366 chalee|	-0.4754
-3.8564 chalegaa	-1.4487
-4.9355 chalegaa|	-0.6972
-4.9355 chalegee	-0.6019
-3.7452 chale|	-1.5519
-5.2366 chalie	-0.4764
-4.6345 chaliye	-0.7780
-3.5738 chalo	-1.7180
-5.2366 chamagaadaD.	-0.4771
-4.6345 chamatkaaree	-0.7781
-5.2366 chand	-0.4771
-4.9355 chane	-0.5979
-4.1574 chaokaleT	-1.2220
-3.9813 chaokaleT|	-1.2948
-4.6345 charch	-0.8133
-3.8052 charchaa	-1.5101
-5.2366 charchit	-0.4765
-4.9355 charitaarth	-0.5979
-4.9355 chashme^	-0.5943
-5.2366 chaskaa	-0.4764
-3.7314 chauhaan	-1.5706
-4.9355 chaukhambaa	-0.6021
-5.2366 cheeD.	-0.4694
-5.2366 cheej	-0.4716
-5.2366 cheeja़	-0.4756
-5.2366 cheeja़ो^	-0.4694
-4.9355 cheeje^	-0.6006
-4.2366 cheenee	-1.0787
-4.1952 cheeratee	-1.1139
-4.9355 cheetaa	-0.6020
-4.6345 cheete	-0.8387
-4.9355 cheeto^	-0.5987
-4.9355 cheez	-0.6880
-5.2366 cheezo^	-0.4663
-5.2366 chehare	-0.4737
-4.1952 chek	-1.1138
-4.1952 chekar	-1.1138
-4.9355 chetan	-0.6721
-5.2366 chetanaa	-0.4771
-4.4584 chhaa*v	-0.8922
-5.2366 chhaa^Tane	-0.4730
-4.6345 chhaap	-0.8435
-5.2366 chhaapaa	-0.4758
-4.9355 chhaapanaa	-0.6021
-4.1952 chhaapane	-1.1135
-4.6345 chhaapanee	-0.7780
-5.2366 chhaapataa|	-0.4754
-5.2366 chhaapate	-0.4771
-4.2366 chhaayaachitr	-1.0772
-4.9355 chhah	-0.6018
-5.2366 chhakke	-0.4771
-3.2498 chhapaa	-1.9951
-5.2366 chhat	-0.4737
-5.2366 chhed	-0.4716
-4.4584 chheen	-0.8954
-3.5834 chhoD.	-1.7083
-4.1226 chhoD.aa	-1.1693
-4.9355 chhoD.aa|	-0.6020
-4.4584 chhoD.ane	-0.9027
-3.6803 chhoD.ataa	-1.5538
-5.2366 chhoD.ate	-0.4765
-5.2366 chhoD.ee	-0.4764
-5.2366 chhoD.o	-0.4769
-5.2366 chhoDa़ा|	-0.4764
-5.2366 chhoDa़े	-0.4766
-3.6803 chhoTaa	-1.6224
-4.2823 chhoTe	-1.1135
-3.9355 chhoTee	-1.3972
-3.8216 chhooT	-1.4578
-3.8941 chhooTaa	-1.3907
-4.1952 chhooTane	-1.1073
-4.6345 chhooTate	-0.7744
-4.4584 chhooTatee	-0.8976
-4.1952 chhooTee	-1.1101
-3.8564 chhooTee|	-1.4309
-4.1952 chhooTegee|	-1.1137
-4.9355 chhor	-0.5987
-4.4584 chhuD.aa	-0.9007
-4.4584 chhuD.avaayaa	-0.8963
-3.9355 chhuTTee	-1.4339
-4.9355 chhuTakaaraa	-0.6990
-4.9355 chhupaa	-0.5943
-4.9355 chhupate	-0.6020
-4.4584 chhupee	-0.8976
-5.2366 chiDh.	-0.4769
-5.2366 chiTThaa	-0.4716
-4.6345 chiTThaajagat	-0.8843
-3.7181 chiTThaakaar	-1.5801
-5.2366 chiTThaakaaree	-0.4694
-4.5376 chiTThaakaaro^	-0.8940
-4.7595 chiTTho^	-0.8306
-4.9355 chikaaee	-0.6020
-5.2366 chikane	-0.4771
-4.9355 chillaa	-0.6018
-3.9355 chinh	-1.3423
-5.2366 chip	-0.4771
-4.4584 chishtee	-0.8973
-3.3792 chitr	-1.8890
-3.7181 chitraN	-1.5296
-4.2366 chitragupt	-1.0788
-5.2366 chitrakaaree	-0.4512
-4.2366 chitro^	-1.0683
-4.3335 choTee	-0.9934
-4.1226 choTiyaa*	-1.1758
-3.8216 choo*ki	-1.5151
-4.7595 choo^ki	-0.8429
-4.9355 chook	-0.6976
-3.9813 chopataa	-1.3104
-4.7595 chor	-0.7775
-5.2366 choree	-0.4746
-5.2366 chuTakee	-0.4764
-4.4584 chubh	-0.9024
-3.1952 chukaa	-2.0567
-3.9355 chukane	-1.3347
-3.8748 chuke	-1.4365
-5.2366 chunaa	-0.4765
-5.2366 chunaav	-0.4771
-4.7595 chunaa|	-0.6730
-3.9144 chunane	-1.3982
-5.2366 chunautee	-0.4722
-4.0325 chune	-1.2782
-4.1952 chunee	-1.1132
-2.9248 d	-2.3175
-4.9355 dRShTi	-0.6923
-3.7742 dRshy	-1.5412
-4.2366 dRshyo^	-1.0776
-5.2366 d^g	-0.4771
-4.9355 daaDha़	-0.5912
-5.2366 daae*	-0.4771
-2.9465 daal	-2.2886
-4.9355 daamo^	-0.5912
-4.9355 daan	-0.5912
-5.2366 daavaa	-0.4703
-5.2366 daave	-0.4739
-5.2366 daayaraa	-0.4769
-5.2366 daayare	-0.4663
-4.9355 daayitv	-0.6946
-4.9355 dabaa	-0.6020
-4.9355 dabaane	-0.5963
-4.9355 dabaao	-0.5952
-4.5376 dabaate	-0.8986
-4.1952 daftar	-1.1062
-3.9355 daftaro^	-1.3316
-5.2366 daiT	-0.4771
-5.2366 damadaar	-0.4771
-4.9355 danadanaa	-0.6015
-5.2366 dapha़ा	-0.4758
-3.6345 daph‍tar	-1.6124
-5.2366 dar	-0.4705
-4.3335 daraasal	-0.9993
-4.9355 darabaar	-0.5912
-3.3335 daragaah	-1.9249
-4.9355 darakaar	-0.6929
-3.9813 dard	-1.2985
-5.2366 darshaanaa	-0.4716
-5.2366 darshaataa	-0.4755
-3.8564 darshan	-1.4687
-3.2453 darshaneey	-1.9783
-4.3335 daryaaft	-0.9993
-3.3281 das	-1.9502
-4.9355 dasavee^	-0.6863
-3.4657 dauD.aa	-1.8050
-4.9355 dauD.aane	-0.5954
-5.2366 dauDa़	-0.4764
-4.1952 daur	-1.1582
-5.2366 dauraa	-0.4770
-4.0605 dauraan	-1.2921
-5.2366 dax	-0.4768
-3.9813 daxiN	-1.3005
-4.9355 daxiNaa	-0.6021
-3.6345 daॆkhaa	-1.6185
-3.1294 de	-2.1674
-3.8564 de^	-1.4549
-4.9355 de^g.e^	-0.5761
-4.9355 de^g.e^…	-0.5761
-5.2366 de^ge	-0.4771
-4.7595 de^|	-0.7769
-3.1797 dee	-2.0611
-5.2366 dee^	-0.4769
-4.2823 dee^|	-1.0413
-4.9355 deejie	-0.5952
-4.9355 deejie|	-0.5995
-5.2366 deemaag	-0.4771
-5.2366 deen	-0.4753
-3.9355 deepaa	-1.3416
-5.2366 deepaavalee	-0.4765
-3.9144 deepak	-1.3733
-4.9355 deevaan	-0.5761
-3.7314 deevaar	-1.5455
-3.8052 deevaaro^	-1.4659
-4.9355 dee|	-0.6980
-4.4584 deg	-0.9624
-4.9355 deg.	-0.5952
-5.2366 degaa|	-0.4512
-4.3335 degee	-0.9998
-5.2366 dekar	-0.4759
-3.0352 dekh	-2.2573
-2.9624 dekhaa	-2.2768
-3.9355 dekhaa|	-1.3531
-3.7314 dekhakar	-1.5355
-4.2823 dekhanaa	-1.1630
-3.2031 dekhane	-2.0330
-4.1574 dekhate	-1.2276
-4.5376 dekhe	-0.9503
-5.2366 dekhe^	-0.4767
-4.1952 dekhe^ge	-1.1139
-5.2366 dekhe^|	-0.4512
-3.6684 dekhee	-1.6511
-3.9813 dekhiegaa	-1.2985
-4.2366 dekhie|	-1.0532
-4.2366 dekhiye	-1.0532
-5.2366 dekho	-0.4768
-3.9578 dekhoo*gaa|	-1.2963
-4.3335 dekh|	-0.9998
-5.2366 dekkhee	-0.4716
-3.9813 denaa	-1.3907
-3.6925 dene	-1.5960
-4.1952 denee	-1.1134
-3.0434 der	-2.1987
-4.2823 dere	-1.0404
-5.2366 desee	-0.4770
-3.0605 desh	-2.1704
-5.2366 deshee	-0.4771
-3.5738 detaa	-1.7072
-3.6684 dete	-1.6413
-4.2366 detee	-1.1123
-5.2366 dete|	-0.4754
-4.9355 dev	-0.6986
-3.9355 devanaagaree	-1.3316
-4.3335 devaprayaag	-0.9891
-5.2366 devee	-0.4713
-4.1226 de|	-1.2012
-5.2366 dhaD.aake	-0.4694
-4.9355 dhaagaa	-0.6021
-4.9355 dhaage	-0.6021
-4.3335 dhaar	-1.0000
-4.9355 dhaarmik	-0.6020
-5.2366 dhakke	-0.4770
-4.6345 dhanateras	-0.8386
-5.2366 dhany	-0.4771
-3.5464 dhanyavaad	-1.7767
-3.7595 dhanyavaad|	-1.4924
-3.9355 dhan‍yavaad	-1.3423
-3.6455 dhare	-1.6208
-4.2366 dharm	-1.1846
-4.9355 dharmaadhikaariyo^	-0.5943
-4.9355 dharmashaalaa	-0.5912
-4.9355 dharohar	-0.6939
-4.9355 dheere	-0.6013
-3.9813 dhoe*ge|	-1.2993
-4.4584 dhokar	-0.9028
-4.9355 dhokhaa	-0.6016
-5.2366 dhoom	-0.4771
-3.6568 dhoop	-1.6407
-4.9355 dhu^dh	-0.6005
-4.4584 dhune^	-0.9005
-4.3335 dhut	-1.0000
-5.2366 dhvanee	-0.4771
-4.3335 dhvani	-1.1361
-3.6803 dhyaan	-1.6099
-3.2498 die	-2.0234
-3.7595 die|	-1.5631
-3.5834 dikh	-1.6710
-3.4442 dikhaa	-1.8397
-5.2366 dikhaae	-0.4770
-3.3615 dikhaaee	-1.9279
-4.9355 dikhaaegaa	-0.5973
-4.7595 dikhaae|	-0.7522
-4.1226 dikhaaie	-1.1501
-4.5376 dikhaane	-0.8970
-4.9355 dikhaao	-0.5952
-5.2366 dikhaataa	-0.4733
-5.2366 dikhaataa|	-0.4512
-4.1574 dikhaate	-1.1734
-3.9813 dikhaavaa	-1.2962
-3.9578 dikhaayaa	-1.3574
-5.2366 dikhaayaa|	-0.4771
-3.8216 dikhaayee	-1.4470
-5.2366 dikhalaane	-0.4739
-5.2366 dikhalaataa	-0.4716
-4.9355 dikhalaayaa	-0.6018
-4.7595 dikhataa	-0.8373
-3.9144 dikhate	-1.3791
-3.9813 dikhatee	-1.2942
-5.2366 dikhatee|	-0.4512
-4.9355 dikhee	-0.6019
-5.2366 dikhegee	-0.4767
-4.9355 dikhe|	-0.5761
-3.9355 dikkat	-1.4395
-5.2366 dikkate^	-0.4768
-3.6803 dil	-1.6011
-4.9355 dilaa	-0.6976
-5.2366 dilaane	-0.4694
-4.4584 dilabar	-0.9031
-4.9355 diler	-0.6020
-3.1874 dillee	-2.0572
-4.3335 dimaag	-1.0638
-2.7480 din	-2.4710
-5.2366 dinacharyaa	-0.4771
-5.2366 dino	-0.4694
-4.3335 dino^	-1.1189
-4.6345 dis	-0.7781
-4.2366 dis^bar	-1.0734
-5.2366 disambar	-0.4663
-3.9578 dishaa	-1.3802
-4.9355 divyaabh	-0.5967
-4.4584 divyabh	-0.9984
-2.8711 diyaa	-2.3733
-3.5931 diyaa|	-1.7120
-2.8600 do	-2.4175
-4.9355 doSh	-0.6940
-4.0061 dobaaraa	-1.3788
-4.1952 dogune	-1.1139
-3.0722 dono^	-2.1610
-4.4584 doo*	-0.9013
-5.2366 doo*gaa	-0.4759
-4.9355 doo*|	-0.6017
-3.7452 dooShit	-1.5359
-5.2366 doo^gaa|	-0.4512
-4.7595 doodh	-0.7777
-5.2366 doolhaa	-0.4771
-3.1721 door	-2.1073
-4.9355 dooree	-0.5987
-4.0904 doosaraa	-1.2961
-3.4657 doosare	-1.8179
-3.4442 doosaree	-1.8720
-4.9355 doosaro^	-0.5988
-4.3335 doot	-0.9998
-3.6684 dopahar	-1.6140
-3.9144 dost	-1.4101
-4.2366 dosto^	-1.0759
-5.2366 do|	-0.4512
-4.9355 duShy^t	-0.6858
-4.3915 duaa	-1.0303
-4.2366 duganaa	-1.0766
-3.6455 dukaan	-1.6208
-3.9813 dukaanadaar	-1.3156
-4.3335 dukaane^	-0.9994
-3.8386 dukh	-1.4509
-5.2366 dukhee	-0.4767
-5.2366 dukkaa	-0.4770
-2.3865 duniyaa	-2.8208
-5.2366 durbhaagy	-0.4767
-4.9355 durgam	-0.5993
-4.0325 durgandh	-1.2543
-4.5376 durust	-0.9483
-5.2366 duvidhaa	-0.4730
-4.1574 dvaar	-1.1670
-3.1226 dvaaraa	-2.1619
-5.2366 dvaarapaalo^	-0.4756
-5.2366 dviteey	-0.4771
-5.2366 e	-0.4771
-5.2366 eD	-0.4771
-4.9355 eDishan	-0.6879
-4.3335 eND	-0.9992
-4.7595 e^D	-0.7781
-5.2366 e^gal	-0.4756
-4.1226 ech	-1.1757
-4.6345 echaTeeemael	-0.9512
-3.1874 ee	-2.0642
-4.3335 eeT	-0.9998
-4.2823 ee^T	-1.0413
-4.2823 eed	-1.0399
-3.0519 eemel	-2.2336
-4.6345 eemele^	-0.9534
-4.7595 eemelo^	-0.7671
-5.2366 eesT	-0.4694
-4.9355 eesaaaee	-0.5988
-4.9355 eesaaee	-0.6021
-4.2823 ehasaas	-1.1075
-4.3335 ejenDaa	-0.9951
-4.2366 ejj	-1.2285
-4.9355 ejj|	-0.6727
-2.2297 ek	-2.9457
-5.2366 ekTiveTiD	-0.4771
-3.3915 ekaadh	-1.8811
-4.2366 ekaaek	-1.1076
-4.1574 ekadam	-1.2234
-4.9355 ekalautee	-0.6021
-3.9813 ekaraaShTr	-1.2962
-3.9813 ekataa	-1.2962
-4.0325 ekatr	-1.2758
-4.9355 eksTraa	-0.6021
-5.2366 eksaechaTeeemael	-0.4771
-5.2366 eksapaayar	-0.4746
-5.2366 ekses	-0.4771
-5.2366 elaemael	-0.4771
-4.1226 elbam	-1.1728
-4.9355 em	-0.6990
-4.7595 emaesaen	-0.7749
-5.2366 emaesaen|	-0.4766
-4.4584 emapee#3	-0.9031
-4.5376 en	-0.9836
-5.2366 enTree	-0.4771
-3.4170 ensee	-1.8422
-4.3335 eris	-0.9923
-4.5376 es	-1.0397
-3.8564 esTeT	-1.4401
-3.6345 esee	-1.6231
-3.0722 eshiyaa	-2.1596
-4.9355 ev^	-0.6021
-5.2366 f^s	-0.4760
-5.2366 f^saayaa	-0.4744
-4.1952 faDDaa	-1.1138
-4.9355 faTaafaT	-0.6018
-3.9813 faaee	-1.2999
-3.1538 faalatoo	-2.0896
-4.1952 faanan	-1.1137
-4.4584 failaa	-0.9024
-5.2366 failaae*ge	-0.4771
-5.2366 fakeer	-0.4718
-5.2366 fanDaa	-0.4755
-4.3335 faramaan	-0.9997
-3.5376 faravaree	-1.7128
-4.5376 farjee	-0.9029
-4.7595 fark	-0.7716
-5.2366 fatah	-0.4512
-3.9813 fe^k	-1.3004
-4.9355 fe^kate|	-0.6020
-5.2366 feechar	-0.4694
-5.2366 feyaree	-0.4512
-5.2366 fifTee	-0.4770
-5.2366 filTar	-0.4764
-5.2366 file	-0.4771
-5.2366 film	-0.4765
-3.2543 filme^	-1.9653
-3.1226 fir	-2.1630
-3.8564 firane	-1.4103
-5.2366 fisalaa	-0.4744
-5.2366 fisalakar	-0.4771
-5.2366 fiss	-0.4771
-5.2366 flaaee	-0.4703
-3.9813 flevar	-1.3009
-4.1574 flikar	-1.2007
-3.3673 fon	-1.8849
-4.9355 foo*kaa	-0.5952
-4.1952 fraaeeDe	-1.1132
-4.2366 french	-1.0683
-3.9355 funavaa	-1.3424
-4.2823 gRhanagar	-1.0347
-4.7595 gYaan	-0.7724
-5.2366 gYaanavardhak	-0.4771
-5.2366 g^bheer	-0.4716
-4.2823 g^daa	-1.0785
-5.2366 g^dagee	-0.4771
-5.2366 g^dee	-0.4771
-4.3335 g^gaa	-0.9741
-4.3335 g^ge	-0.9946
-5.2366 g^tavy	-0.4713
-5.2366 g^vaar	-0.4767
-5.2366 gaD.abaD.	-0.4746
-4.4584 gaDh.	-0.9020
-3.7314 gaDh.avaal	-1.5298
-4.5376 gaNit	-0.9805
-4.3335 gaa*v	-0.9942
-2.9718 gaaD.ee	-2.2839
-3.8386 gaaD.iyo^	-1.4417
-4.9355 gaaDa़ी	-0.6902
-5.2366 gaaDa़े	-0.4768
-5.2366 gaaDee	-0.4705
-4.9355 gaa^v	-0.6932
-4.9355 gaaeeD	-0.6015
-4.4584 gaaeeDabuk	-0.8997
-4.9355 gaaeeDo^	-0.5963
-2.9533 gaaiD	-2.2873
-4.5376 gaaliyaa*	-1.0411
-5.2366 gaamaa	-0.4771
-3.8052 gaanaa	-1.4729
-4.4584 gaano^	-0.8973
-3.7742 gaarDan	-1.4942
-5.2366 gaayab	-0.4760
-4.2823 gaaziyaabaad	-1.0414
-2.5843 gae	-2.6270
-2.7537 gaee	-2.4671
-4.1226 gaee^	-1.1958
-3.3389 gaee|	-1.9296
-3.0036 gae|	-2.2485
-5.2366 gahan	-0.4771
-5.2366 gair	-0.4771
-4.9355 gairakaanoonee	-0.6020
-5.2366 gaire	-0.4739
-4.1952 gajab	-1.1082
-4.6345 gajak	-0.9473
-3.9813 galaa	-1.3010
-3.7051 galat	-1.6114
-3.3673 galatee	-1.8843
-5.2366 galatiyaa*	-0.4770
-3.9144 gale	-1.3931
-4.1574 galee	-1.1694
-5.2366 galiyaare	-0.4663
-5.2366 gaoT	-0.4771
-4.3335 gapashap	-0.9923
-4.9355 garagaah	-0.5943
-3.9578 garaj	-1.3156
-4.9355 garbhavatee	-0.6985
-5.2366 garimaa	-0.4512
-4.0325 garm	-1.3218
-4.9355 garmaa	-0.6020
-3.7051 garmee	-1.5731
-5.2366 garv	-0.4705
-4.9355 gatee	-0.5954
-4.2823 gati	-1.1050
-5.2366 gaur	-0.4771
-5.2366 gauratalab	-0.4759
-5.2366 gavarni^g	-0.4771
-2.5981 gayaa	-2.6010
-3.2072 gayaa|	-2.0721
-3.3673 gaye	-1.8699
-4.1226 gayee	-1.1699
-4.2366 gaye…sabase	-1.0789
-4.9355 gem	-0.6013
-3.5206 gh^Taa	-1.7667
-3.4584 gh^Te	-1.8100
-4.3915 gh^To^	-0.9881
-4.6345 ghaTanaa	-0.9000
-4.9355 ghaTiyaa	-0.6990
-4.2366 ghaas	-1.1051
-4.3335 ghabaraaee	-0.9998
-5.2366 ghabaraane	-0.4713
-4.1226 ghanaa	-1.1759
-5.2366 ghapalaa	-0.4764
-2.9443 ghar	-2.2935
-4.9355 gharo^	-0.5987
-4.1226 gher	-1.2263
-4.6345 ghere	-0.8441
-4.3335 ghir	-0.9996
-4.4584 ghoD.e	-0.8997
-3.3732 ghoom	-1.9096
-4.1952 ghoomaa	-1.1135
-3.8941 ghoomakar	-1.3800
-3.4105 ghoomane	-1.8628
-4.9355 ghoomoo^gaa	-0.6728
-3.9813 ghuT	-1.2999
-4.9355 ghuTano^	-0.5954
-4.1226 ghumaa	-1.2529
-3.9355 ghumaae	-1.3347
-4.9355 ghumaavo^	-0.5952
-4.9355 ghumaayaa	-0.5972
-2.5663 ghumakkaD.	-2.6469
-4.7595 ghupp	-0.7780
-4.0325 ghus	-1.3204
-4.9355 ghusee|	-0.6017
-5.2366 ginaaee	-0.4766
-4.7595 ginatee	-0.8364
-4.0325 gine	-1.2552
-4.9355 giraft	-0.5912
-3.9813 giragaTee	-1.3010
-4.9355 girajaa	-0.6020
-4.9355 girajo^	-0.5912
-5.2366 girate	-0.4764
-4.9355 gire	-0.5973
-4.9355 giree	-0.6020
-5.2366 giriraaj	-0.4771
-4.4584 global	-0.9031
-4.2823 go	-1.2024
-5.2366 gol	-0.4713
-4.9355 golee	-0.5963
-4.1574 googal	-1.3358
-4.3335 goree	-0.9985
-4.5376 graahak	-0.8973
-3.9578 graahako^	-1.3342
-4.9355 graameeN	-0.6015
-4.3335 graipTar	-1.1358
-4.9355 grasit	-0.6001
-5.2366 grepTar	-0.4739
-4.9355 gres	-0.6021
-4.9355 grup	-0.6017
-4.1574 guD	-1.1761
-5.2366 guNaa	-0.4771
-5.2366 guT	-0.4663
-4.9355 gugal	-0.6020
-4.2823 gujaarane	-1.0360
-5.2366 gujar	-0.4761
-4.9355 gul	-0.6018
-3.9813 gum	-1.2985
-5.2366 gupt	-0.4746
-4.6345 guptakaashee	-0.8373
-3.8941 guruvaar	-1.3946
-5.2366 guzaaree	-0.4770
-4.2823 guzar	-1.0403
-4.3335 guzarate	-0.9992
-4.0904 gyaarah	-1.2498
-4.9355 gyaarahavee^	-0.6988
-4.9355 h^s	-0.5943
-3.9813 haD.abaD.ee	-1.2902
-4.7595 haD.ap	-0.6990
-5.2366 haD.apaa	-0.4722
-5.2366 haD.apanaa	-0.4730
-4.4584 haT	-0.9028
-5.2366 haTaanaa	-0.4770
-4.1574 haa	-1.2037
-3.1328 haa*	-2.1442
-3.8941 haa^f	-1.3958
-4.3335 haadasaa	-0.9999
-3.9813 haaee	-1.3010
-4.3335 haakim	-1.0000
-3.1467 haal	-2.0892
-4.9355 haal|	-0.5761
-5.2366 haani	-0.4722
-4.9355 haanikaarak	-0.6019
-3.9578 haaoo	-1.3314
-3.9813 haar	-1.2751
-5.2366 haarDee	-0.4771
-2.9488 haarane	-2.2845
-3.4105 haath	-1.8394
-5.2366 haathee	-0.4771
-4.6345 haatho^	-0.7715
-4.3335 haazir	-0.9999
-5.2366 hach	-0.4694
-3.6455 had	-1.6246
-1.8983 hai	-3.2139
-4.9355 hai*	-0.6726
-2.3473 hai^	-2.8445
-3.0491 hai^|	-2.2170
-3.6345 hai^|kalakatte	-1.6155
-3.9578 hailo	-1.3421
-3.9813 hailp	-1.3009
-4.9355 hairaanee	-0.6020
-5.2366 haisiyat	-0.4705
-3.9144 haiv	-1.3890
-5.2366 haiz	-0.4771
-2.4197 hai|	-2.7820
-4.2366 hai…	-1.0777
-4.9355 hai…ajamer	-0.6020
-4.3335 hai…badhaaee	-0.9741
-4.2366 hai…ki	-1.0764
-4.9355 hai…meraa	-0.6021
-4.9355 hai…mere	-0.6019
-4.2366 hai…su^dar	-1.0788
-4.9355 hai…usame^	-0.6021
-4.9355 hai…vi^daas	-0.6021
-4.9355 hai…yahaa*	-0.6013
-4.9355 hai…ye	-0.6020
-4.9355 hai…|dhanyavaad	-0.5761
-4.9355 hak	-0.6990
-4.2823 hal	-1.2010
-3.2543 halachal	-1.9653
-3.9578 haladvaanee	-1.3390
-3.8941 haldvaanee	-1.3802
-4.3335 halkaa	-1.0791
-4.2366 halke	-1.1367
-3.8564 halkee	-1.4700
-2.2611 ham	-2.9392
-3.7595 hamaar	-1.5183
-3.7181 hamaaraa	-1.6057
-3.1874 hamaare	-2.0968
-3.5834 hamaaree	-1.7469
-5.2366 hamahoo^	-0.4759
-5.2366 hamahu^	-0.4746
-4.2366 hamakaa	-1.0792
-3.5123 hamako	-1.8111
-3.0061 hamane	-2.2867
-5.2366 hamasafar	-0.4771
-5.2366 hamasaphar	-0.4771
-4.7595 hamase	-0.7775
-3.7894 hame	-1.5316
-3.0999 hame^	-2.1894
-4.2823 hameshaa	-1.1394
-5.2366 haoT	-0.4771
-5.2366 haobee	-0.4770
-4.2823 haoki^g	-1.0346
-3.0271 har	-2.2484
-5.2366 harD.j	-0.4737
-4.3335 haraa	-0.9999
-4.9355 harakate^	-0.6020
-4.3335 hare	-0.9999
-4.3335 haridvaar	-0.9992
-4.6345 hariraam	-0.8190
-5.2366 hariyaalee	-0.4694
-5.2366 haseenaa	-0.4751
-5.2366 hastinaapur	-0.4771
-4.9355 hausalaa	-0.6017
-4.1226 havaa	-1.1973
-3.6803 havaaee	-1.5797
-5.2366 havaale	-0.4763
-4.3335 havelee	-0.9985
-3.9578 hazaar	-1.3905
-3.9355 haॊtee	-1.3165
-4.9355 he	-0.6990
-5.2366 he^	-0.4724
-2.0599 hee	-3.0862
-3.9813 heenataa	-1.3009
-4.2823 heero	-1.2162
-4.9355 heeroin	-0.5943
-3.7181 hee|	-1.5181
-4.7595 helmeT	-0.7719
-5.2366 help	-0.4770
-4.3335 heriTej	-0.9997
-3.6803 hezalanaT	-1.5884
-4.9355 hiT	-0.6947
-3.6684 hi^dee	-1.6050
-5.2366 hichakate	-0.4751
-4.3335 hidaayat	-0.9997
-4.7595 hil	-0.7779
-4.9355 hilatee	-0.6021
-4.3335 him	-0.9934
-3.2823 himaalay	-1.9364
-5.2366 himeshavaa	-0.4771
-2.3902 hindee	-2.7840
-5.2366 hindiblog.train	-0.4512
-4.0904 hindu	-1.2304
-4.6345 hisaab	-0.7715
-4.3335 hissaa	-1.0000
-3.0752 hitesh	-2.1512
-2.2327 ho	-2.9662
-4.9355 hoD.	-0.5912
-3.1684 hoTal	-2.0740
-4.2823 hoTalo^	-1.0305
-3.6133 ho^	-1.6317
-4.2366 ho^ge	-1.2223
-4.2366 ho^gee	-1.0786
-4.4584 ho^ge|	-0.9018
-3.3977 hogaa	-1.8651
-3.4105 hogaa|	-1.8469
-5.2366 hogayaa	-0.4512
-3.0782 hogee	-2.1420
-3.9144 hogee|	-1.3671
-3.9813 hokar	-1.4062
-5.2366 holD	-0.4764
-5.2366 honDaa	-0.4713
-3.6031 honaa	-1.6891
-3.0061 hone	-2.2233
-3.4731 honee	-1.7902
-2.9911 hoo*	-2.2502
-3.8941 hoo*|	-1.4552
-3.5206 hoo^	-1.7150
-4.9355 hosT	-0.6955
-4.9355 hosTi^g	-0.6897
-3.0139 hotaa	-2.2045
-4.9355 hotaa…vaise	-0.6020
-3.1797 hote	-2.0748
-2.9102 hotee	-2.2985
-4.9355 hotee|	-0.6712
-4.7595 hote|	-0.7520
-3.7051 ho|	-1.5520
-2.8166 huaa	-2.3921
-3.5042 huaa|	-1.7860
-2.8233 hue	-2.4459
-3.2634 huee	-2.0161
-5.2366 huee^|	-0.4770
-3.9144 huee|	-1.3536
-4.3335 hue|	-1.0151
-4.9355 hukm	-0.6021
-4.3335 hukmabaradaaro^	-0.9985
-5.2366 huliyaa	-0.4771
-4.7595 iT	-0.8191
-4.9355 i^DasTree	-0.6826
-5.2366 i^Diyaa	-0.4713
-5.2366 i^Tarafes	-0.4771
-3.6684 i^TaraneT	-1.6299
-4.9355 i^Taraphes	-0.6974
-4.9355 i^Taraphesh	-0.6019
-4.9355 i^jeeniyar	-0.6985
-5.2366 i^phormeshan	-0.4768
-4.2823 i^sTaol	-1.2481
-3.9144 i^saan	-1.3797
-4.7595 i^saano^	-0.6932
-3.5123 i^tajaar	-1.7486
-4.2366 i^tazaar	-1.1017
-5.2366 i^vesTamenT	-0.4767
-4.2823 ichchhaa	-1.0994
-5.2366 ichchhaanusaar	-0.4771
-4.4584 ichchhuk	-0.9483
-3.1538 idhar	-2.1066
-4.6345 ij	-0.9541
-4.9355 ijaazat	-0.5972
-4.9355 ikkaThe	-0.6021
-5.2366 ikkaa	-0.4771
-4.9355 ilaake	-0.5912
-4.9355 ilaayachee	-0.6016
-5.2366 ilekTraonik	-0.4771
-5.2366 ilekTraoniks	-0.4760
-5.2366 ilekTronik	-0.4771
-4.1952 ilzaam	-1.1138
-4.0325 imaarat	-1.2752
-3.5738 in	-1.8168
-4.9355 inaam	-0.6984
-4.9355 inakaa	-0.6984
-4.6345 inake	-0.9507
-4.7595 inakee	-0.7777
-4.2366 inako	-1.1455
-5.2366 iname^	-0.4703
-5.2366 inase	-0.4763
-4.6345 inbaoks	-0.9271
-4.9355 inhe^	-0.6016
-4.9355 inhee^	-0.6021
-5.2366 inho^ne	-0.4771
-4.9355 inphorameshan	-0.6987
-4.9355 insaan	-0.5995
-4.9355 intajaar	-0.6007
-4.3915 iraadaa	-0.9972
-2.7314 is	-2.5500
-3.6803 isakaa	-1.6490
-3.4807 isake	-1.8645
-3.4105 isakee	-1.8679
-3.6031 isako	-1.7245
-2.6227 isalie	-2.6016
-3.8216 isaliye	-1.4471
-4.3335 isame	-0.9991
-3.4442 isame^	-1.8665
-5.2366 isane	-0.4771
-3.8386 isase	-1.4909
-3.9813 ise	-1.3695
-3.3123 isee	-1.9644
-4.9355 iseeliye	-0.6003
-3.6345 iske	-1.6226
-3.9355 iskee	-1.3423
-4.9355 istemaal	-0.6013
-3.5645 itanaa	-1.7736
-3.6803 itane	-1.6395
-3.9144 itanee	-1.4455
-3.9813 ithopiyan	-1.3010
-4.7595 itihaas	-0.7613
-4.3335 itihaasakaaro^	-0.9923
-4.9355 itr	-0.6018
-5.2366 ittafaak	-0.4733
-5.2366 ityaadi	-0.4771
-4.9355 izaraaeel	-0.5954
-3.3501 j^gal	-1.9026
-4.3335 j^galee	-0.9998
-2.8250 jaa	-2.4336
-4.6345 jaa*ch	-0.8444
-4.2823 jaa*chane	-1.0704
-5.2366 jaa*che	-0.4771
-5.2366 jaa*chee	-0.4716
-3.2453 jaae	-2.0124
-3.7314 jaae*	-1.5371
-3.6803 jaae*ge	-1.5903
-5.2366 jaae*gee	-0.4730
-3.7894 jaae*ge|	-1.4895
-3.9813 jaae*|	-1.2956
-3.7181 jaaegaa	-1.6272
-3.5834 jaaegaa|	-1.6804
-4.0325 jaaegee	-1.3144
-4.2366 jaaegee|	-1.0532
-3.7452 jaae|	-1.5658
-4.9355 jaag	-0.6010
-5.2366 jaagRt	-0.4767
-4.9355 jaage	-0.6014
-3.3389 jaakar	-1.9520
-4.7595 jaal	-0.7704
-4.9355 jaalee	-0.5912
-3.9355 jaan	-1.4180
-3.2498 jaanaa	-2.0291
-5.2366 jaanaboojhakar	-0.4722
-5.2366 jaanadaar	-0.4759
-3.7595 jaanakaaree	-1.6396
-5.2366 jaanakar	-0.4762
-4.1574 jaananaa	-1.1460
-4.7595 jaanane	-0.6912
-3.8564 jaanataa	-1.4402
-3.4807 jaanate	-1.7823
-5.2366 jaanatee	-0.4756
-2.8117 jaane	-2.3799
-4.4584 jaanee	-0.9023
-3.6455 jaao	-1.6006
-3.9813 jaaoo*gaa	-1.2948
-4.1952 jaaoo^	-1.0880
-3.2072 jaaree	-2.0333
-2.9694 jaataa	-2.2488
-3.9578 jaataa|	-1.3413
-3.2872 jaate	-1.9785
-3.7181 jaatee	-1.6081
-5.2366 jaatee^	-0.4709
-3.9355 jaatee|	-1.3355
-5.2366 jaate|	-0.4703
-4.6345 jaau*	-0.8381
-4.9355 jaavaa	-0.5912
-5.2366 jaavaaree	-0.4767
-4.3335 jaayaa	-0.9993
-4.9355 jaayaj	-0.6932
-5.2366 jaayaz	-0.4716
-4.9355 jaaye	-0.5958
-5.2366 jaaye*ge	-0.4709
-4.5376 jaaye^	-0.8389
-5.2366 jaaye^ge|	-0.4512
-5.2366 jaaye^|	-0.4771
-5.2366 jaaye|	-0.4770
-2.7682 jab	-2.4510
-4.2823 jabaki	-1.1412
-5.2366 jabardastee	-0.4771
-3.9813 jabatak	-1.3010
-4.4584 jagaa	-0.9025
-4.3335 jagaayaa	-0.9989
-3.6345 jagadambee	-1.6229
-2.6767 jagah	-2.5418
-4.9355 jagahe^	-0.6001
-3.8564 jagaho^	-1.4170
-4.9355 jagannaath	-0.6021
-5.2366 jagat	-0.4663
-2.9601 jahaa*	-2.2932
-4.4584 jahaa*geer	-0.9919
-3.6803 jahaaj	-1.5796
-4.3335 jaikeT	-1.1025
-4.2366 jain	-1.1135
-3.5464 jaisaa	-1.7324
-3.2237 jaise	-2.0794
-3.4442 jaisee	-1.8462
-4.9355 jaiso^	-0.6903
-4.9355 jaj	-0.6912
-4.3335 jal	-0.9891
-4.9355 jalaa	-0.5943
-4.9355 jalaaee	-0.5965
-3.4884 jald	-1.7596
-3.6345 jaldee	-1.6809
-4.3335 jamaane	-0.9942
-4.9355 jamakar	-0.6021
-4.3335 jamee	-0.9982
-4.9355 jan	-0.5979
-4.6345 janataa	-0.8370
-3.7894 janavaree	-1.5079
-4.9355 janm	-0.6014
-4.4584 jaraa	-0.9534
-5.2366 jaroorat	-0.4769
-3.9355 jarur	-1.3614
-4.1952 jataaee|	-1.1138
-3.4884 javaab	-1.7703
-4.9355 javaan|	-0.6016
-5.2366 jay	-0.4746
-3.7595 jayapur	-1.5535
-5.2366 ja़rie	-0.4771
-5.2366 ja़िkr	-0.4771
-5.2366 ja़ुkaam	-0.4768
-2.9533 ja़ोmaiTo	-2.2867
-4.0325 jeb	-1.2989
-2.7234 jee	-2.4860
-4.4584 jeemel	-1.0833
-5.2366 jeepeeaaes	-0.4767
-4.3915 jeepeeaaraes	-1.1215
-4.7595 jeetane	-0.6912
-5.2366 jeete	-0.4771
-5.2366 jeetoo	-0.4769
-5.2366 jeev	-0.4771
-4.2366 jeev^t	-1.0791
-4.1226 jeevan	-1.2195
-4.1226 jeevant	-1.1760
-4.3335 jeevit	-0.9975
-3.5464 jee|	-1.6896
-4.9355 jhaTakaa	-0.5958
-4.9355 jhaaD.ee	-0.5943
-4.9355 jhaa^k	-0.5943
-3.9355 jhaa^see	-1.3482
-5.2366 jhagaDa़े	-0.4703
-5.2366 jhak	-0.4771
-4.1952 jhakaas	-1.1455
-4.9355 jhalak	-0.6990
-5.2366 jhalle	-0.4771
-4.9355 jhapaTane	-0.6015
-5.2366 jharanaa	-0.4716
-5.2366 jharane	-0.4705
-3.7452 jhel	-1.5557
-3.5376 jho^paD.aa	-1.7167
-3.7314 jho^paD.e	-1.5353
-3.9355 jhooTh	-1.3423
-3.6803 jhu^jhalaahaT	-1.5792
-5.2366 ji^daa	-0.4771
-5.2366 jim	-0.4771
-5.2366 jin	-0.4771
-4.2366 jinakaa	-1.1113
-4.4584 jinake	-1.0394
-4.7595 jinako	-0.8383
-4.4584 jiname^	-0.9982
-4.9355 jinho^ne	-0.6988
-4.6345 jip	-0.7744
-3.2588 jis	-2.0292
-4.7595 jisakaa	-0.8442
-4.6345 jisake	-0.9018
-4.5376 jisakee	-0.9537
-4.1226 jisako	-1.2987
-3.7894 jisame^	-1.5961
-4.6345 jisane	-0.8420
-3.9355 jisase	-1.4126
-3.7894 jise	-1.5942
-3.9355 jitanaa	-1.4125
-3.9813 jitane	-1.3750
-4.9355 jitanee	-0.6951
-2.5814 jo	-2.6660
-5.2366 joD.	-0.4765
-4.9355 joD.ane	-0.6822
-4.9355 joD.o^	-0.5912
-5.2366 joDa़	-0.4764
-5.2366 jogars	-0.4771
-4.7595 joote	-0.7780
-3.9578 jooto^	-1.3312
-5.2366 joro^	-0.4737
-4.3335 josh	-1.0000
-5.2366 joshee	-0.4771
-5.2366 juD.	-0.4771
-4.9355 juD.aa	-0.6021
-5.2366 juTaayaa	-0.4716
-3.3123 jugaaD.	-1.9415
-4.1952 julaaee	-1.1298
-5.2366 julee	-0.4771
-4.9355 juraab	-0.6020
-4.0325 jyaadaa	-1.3167
-4.9355 jyaadaatar	-0.6019
-4.9355 kRpayaa	-0.6983
-4.2366 kRtrim	-1.1137
-4.9355 k^dho^	-0.5987
-3.8941 k^panee	-1.4671
-4.9355 k^paniyo^	-0.6802
-4.3915 k^pyooTar	-1.0963
-5.2366 k^pyooTaro^	-0.4763
-3.6455 kaD.ee	-1.6381
-4.9355 kaDee	-0.5967
-4.9355 kaNv	-0.6021
-4.5376 kaNvaashram	-1.0016
-5.2366 kaShT	-0.4765
-4.9355 kaT	-0.6989
-4.9355 kaTaa	-0.5952
-3.9355 kaTaaramal	-1.3724
-5.2366 kaTavaaye	-0.4768
-4.6345 kaThin	-0.8402
-3.8564 kaThinaaee	-1.4083
-2.9533 kaToraa	-2.2636
-1.9119 kaa	-3.2637
-4.2366 kaa*ch	-1.0715
-4.4584 kaaT	-0.9990
-5.2366 kaaTaa	-0.4512
-5.2366 kaaTate	-0.4771
-3.5931 kaaThagodaam	-1.6660
-3.9813 kaaThee	-1.3007
-4.3335 kaabiz	-0.9993
-3.4237 kaafee	-1.8911
-3.9813 kaahavaa	-1.3003
-4.1226 kaahe	-1.2249
-5.2366 kaaj	-0.4769
-4.9355 kaakesh	-0.5761
-5.2366 kaalaa	-0.4771
-3.8386 kaale	-1.4623
-5.2366 kaalee	-0.4771
-4.1226 kaalej	-1.1694
-4.1952 kaalimaa	-1.1107
-3.3123 kaam	-1.9566
-4.3335 kaamanaa	-0.9945
-4.3335 kaan	-0.9923
-4.1952 kaanDapaal	-1.0880
-4.9355 kaanoon	-0.6896
-5.2366 kaaoo^Tar	-0.4737
-4.2366 kaaoobaoy	-1.0786
-5.2366 kaapha़ी	-0.4771
-3.4584 kaaphee	-1.8426
-4.7595 kaarD	-0.7778
-3.2543 kaarToon	-1.9653
-2.9911 kaaraN	-2.2721
-4.9355 kaaragar	-0.6918
-5.2366 kaarbeT	-0.4694
-3.6455 kaary	-1.6678
-5.2366 kaaryaanvit	-0.4767
-3.2409 kaaryakram	-2.0288
-4.2366 kaaryarat	-1.0737
-3.9355 kaash	-1.3424
-3.7894 kaa|	-1.4636
-4.9355 kaa…vi^daas	-0.6020
-4.9355 kaa…|vaise	-0.5979
-3.5290 kab	-1.7705
-5.2366 kabaaD.	-0.4752
-3.0967 kabaab	-2.1321
-5.2366 kabeeradaas	-0.4718
-4.6345 kabhaar	-0.9029
-3.1797 kabhee	-2.1057
-4.3335 kabool	-0.9993
-4.1952 kabze	-1.1031
-5.2366 kacharaa	-0.4771
-5.2366 kachchaa	-0.4771
-3.5206 kadaachit‌	-1.8301
-4.7595 kadam	-0.7780
-4.9355 kadamo^	-0.5963
-3.2280 kaee	-2.0924
-3.5042 kah	-1.7967
-3.1835 kahaa	-2.0788
-3.5290 kahaa*	-1.7817
-4.0061 kahaanee	-1.2928
-4.9355 kahaaniyaa*	-0.6021
-4.9355 kahaavato^	-0.5988
-4.9355 kahaa|	-0.5958
-4.3915 kahakar	-0.9495
-4.7595 kahanaa	-0.7712
-3.4105 kahane	-1.8359
-4.2366 kahataa	-1.1866
-4.2823 kahate	-1.1097
-4.1226 kahee	-1.2288
-3.1260 kahee^	-2.1364
-3.9355 kahoo*gaa	-1.3377
-5.2366 kahoo*gaa|	-0.4512
-3.3673 kaife	-1.8806
-4.3335 kailoree	-0.9934
-3.2588 kaimaraa	-1.9990
-4.9355 kaimaraa|	-0.5958
-3.7051 kaimare	-1.5816
-4.2823 kaimaro^	-1.0305
-4.2366 kaimpasaaiT	-1.1073
-4.1952 kainsal	-1.1139
-4.1952 kainsil	-1.1138
-5.2366 kaipha़े	-0.4663
-4.6345 kaisaa	-0.7780
-3.2971 kaise	-2.0355
-3.4237 kal	-1.8696
-3.9144 kalaa	-1.3670
-4.4584 kalaakaar	-0.9025
-3.9355 kalakatte	-1.3417
-5.2366 kalap	-0.4694
-3.4442 kam	-1.8963
-4.7595 kamaaee	-0.7652
-5.2366 kamaane	-0.4694
-5.2366 kamaate	-0.4767
-3.8941 kamar	-1.3768
-3.6803 kamaraa	-1.6156
-3.3123 kamare	-1.9509
-4.0061 kamaro^	-1.2978
-3.9144 kamee	-1.3921
-5.2366 kameej	-0.4771
-5.2366 kampyooTar	-0.4694
-3.7595 kandriyaa	-1.5050
-5.2366 kaneksan	-0.4694
-4.9355 kanekshan	-0.6924
-5.2366 kanfarm	-0.4764
-4.1226 kanyaa	-1.3267
-3.0165 kaofee	-2.2408
-3.9813 kaofiyo^	-1.2902
-4.1226 kaol	-1.2977
-4.9355 kaolasenTar	-0.5912
-5.2366 kaolej	-0.4694
-5.2366 kaoli^g	-0.4771
-4.5376 kaom	-0.9916
-4.9355 kaomapleks	-0.5912
-5.2366 kaonTekT	-0.4771
-4.1226 kaoree	-1.1761
-4.9355 kaornar	-0.6020
-3.9813 kap	-1.2902
-3.5290 kapaD.e	-1.7493
-4.1226 kapaD.o^	-1.1684
-2.5189 kar	-2.7074
-4.9355 karNvaashram	-0.5979
-3.8748 karaa	-1.4474
-4.9355 karaae	-0.6942
-4.9355 karaaee	-0.6017
-5.2366 karaaeeyegaa	-0.4512
-5.2366 karaamaat	-0.4716
-4.9355 karaao	-0.6020
-3.0325 karake	-2.2251
-3.0634 karanaa	-2.2088
-2.7910 karane	-2.4261
-4.0904 karanee	-1.2304
-3.3915 karataa	-1.8837
-3.9355 karataa|	-1.3353
-3.2323 karate	-2.0318
-4.4584 karatee	-1.0059
-3.6684 karate|	-1.6119
-3.4807 karavaa	-1.8067
-4.0061 karavaae	-1.2768
-5.2366 karavaae*|	-0.4767
-3.8748 karavaaee	-1.4293
-4.9355 karavaaee|	-0.5761
-4.1226 karavaakar	-1.1761
-4.9355 karavaanaa	-0.5965
-4.4584 karavaane	-0.8973
-4.6345 karavaanee	-0.7781
-4.2366 karavaate	-1.0792
-4.1226 karavaayaa	-1.2152
-4.9355 kare	-0.6910
-3.2195 kare^	-2.0187
-3.4237 kare^ge	-1.8067
-5.2366 kare^gee	-0.4512
-5.2366 kare^ge|	-0.4512
-4.7595 kare^|	-0.7773
-3.8748 karee	-1.4621
-4.1952 kareeb	-1.1459
-4.7595 karegaa	-0.7774
-5.2366 karegaa|	-0.4770
-5.2366 kare|	-0.4771
-5.2366 karija़\maa	-0.4739
-4.9355 karijmaa	-0.6932
-5.2366 karishmaa	-0.4766
-5.2366 kariyar	-0.4713
-4.9355 karizmaa	-0.6020
-4.0904 karmachaaree	-1.2467
-4.2366 karo	-1.0777
-4.7595 karoo*	-0.7754
-5.2366 karoo*gaa	-0.4771
-4.9355 karoo*gee	-0.6658
-4.9355 karoo*|	-0.6006
-3.8052 karo|	-1.4643
-3.6345 kartee	-1.6231
-5.2366 karu*|	-0.4753
-4.9355 kasTamar	-0.6990
-4.4584 kasarat	-0.9031
-4.9355 kasbaa	-0.6672
-4.6345 kataar	-0.7673
-3.2543 kataran	-1.9653
-2.9355 kathaa	-2.2745
-5.2366 kathit	-0.4771
-3.8748 kaun	-1.4345
-5.2366 kaviraaj	-0.4512
-3.6238 kax	-1.6387
-4.1952 kaxaa	-1.2058
-1.7538 ke	-3.3912
-5.2366 keT	-0.4771
-4.9355 kear	-0.6880
-5.2366 kear|	-0.4512
-1.8781 kee	-3.2833
-3.7894 keeD.aa	-1.4910
-5.2366 keechaD.	-0.4771
-4.1226 keejie	-1.2303
-4.2366 keejiye	-1.0532
-4.9355 keemat	-0.6910
-4.4584 kee|	-1.0681
-3.5376 keval	-1.7760
-3.6345 kh^Dahar	-1.6591
-4.4584 khaD.aa	-0.9020
-3.7051 khaD.e	-1.6158
-4.6345 khaD.ee	-0.7768
-5.2366 khaDa़kaa	-0.4771
-3.4731 khaa	-1.8092
-5.2366 khaa^	-0.4722
-5.2366 khaa^see	-0.4771
-4.1574 khaadim	-1.1644
-4.9355 khaady	-0.6021
-4.9355 khaae	-0.6018
-4.9355 khaaee	-0.6006
-3.9355 khaaeeye	-1.3407
-5.2366 khaak	-0.4771
-3.3389 khaalee	-1.9455
-4.3335 khaamakhaa	-1.1947
-5.2366 khaan	-0.4771
-3.2872 khaanaa	-1.9964
-5.2366 khaanaapoortee	-0.4713
-3.7051 khaane	-1.5794
-3.1797 khaas	-2.0895
-3.8216 khaasataur	-1.4523
-4.0061 khaasee	-1.3422
-5.2366 khaatir	-0.4769
-3.7314 khaayaa	-1.5681
-4.6345 khabar	-0.9240
-3.2728 khair	-2.0210
-2.9813 khajuraaho	-2.2246
-4.2366 khajuraho	-1.0715
-4.1226 khalee	-1.1753
-4.9355 khalegee	-0.6013
-3.4584 kharaab	-1.8238
-5.2366 kharab	-0.4767
-4.9355 kharagosh	-0.5761
-4.9355 kharagosho^	-0.5987
-4.3335 kharch	-0.9999
-4.2366 khareedaa	-1.1101
-5.2366 khareedadaaree	-0.4771
-4.7595 khareedee	-0.7765
-4.9355 khareedee^|	-0.5761
-4.9355 khareedoo*	-0.5958
-4.0325 khastaahaal	-1.2548
-3.8386 khataraa	-1.4575
-4.1952 khaufanaak	-1.1127
-5.2366 khee^chataa	-0.4755
-5.2366 khee^che	-0.4746
-5.2366 khee^chee	-0.4716
-4.5376 kheej	-0.9850
-3.1835 khel	-2.0435
-4.2366 khelaa	-1.1063
-4.9355 khelanaa	-0.5965
-4.2366 khelane	-1.1061
-3.9578 khiD.akee	-1.3368
-4.9355 khi^chavaaee	-0.6019
-4.3335 khi^chavaane	-0.9923
-5.2366 khidamat	-0.4755
-4.2366 khilaaD.ee	-1.1064
-4.5376 khilaaf	-0.9487
-4.3335 khinn	-0.9973
-4.2366 khoj	-1.1360
-3.9355 khol	-1.4384
-4.2823 kholane	-1.0665
-4.9355 kholate	-0.6012
-5.2366 kholee|	-0.4771
-4.9355 kholie	-0.6726
-5.2366 khoo^Taa	-0.4771
-3.5553 khoob	-1.7829
-3.9355 khoobasoorat	-1.3617
-4.1952 khoobee	-1.1084
-4.9355 khoon	-0.6988
-4.9355 khub	-0.6730
-4.9355 khubasooratee	-0.5983
-5.2366 khud	-0.4733
-4.2823 khujalee	-1.0388
-4.1226 khul	-1.2709
-3.9813 khulaa	-1.3330
-4.9355 khulaasaa	-0.6013
-4.9355 khulane	-0.5943
-4.0605 khule	-1.2710
-4.3335 khule^ge	-0.9992
-4.2823 khulee	-1.0346
-5.2366 khulegee|	-0.4758
-5.2366 khunnas	-0.4771
-5.2366 khurkee	-0.4771
-4.1952 khush	-1.1433
-4.1952 khushaboo	-1.1127
-3.8748 khushee	-1.4402
-4.0325 khyaal	-1.3376
-4.4584 khyaalo^	-0.8922
-1.9624 ki	-3.2061
-3.9813 ki^tu	-1.3009
-5.2366 ki^vad^tiyo^	-0.4694
-5.2366 ki^vadantiyo^	-0.4694
-3.5738 kie	-1.7559
-5.2366 kie|	-0.4769
-3.9355 kilaa	-1.3841
-3.7894 kile	-1.4891
-5.2366 kilo	-0.4771
-4.4584 kilo^	-0.8922
-5.2366 kilobaaiT	-0.4770
-3.5738 kilomeeTar	-1.7002
-4.2366 kin	-1.1455
-3.6925 kinaare	-1.5741
-4.1574 kiraN	-1.1742
-4.3335 kiraae	-0.9891
-4.2823 kiraayaa	-1.0724
-5.2366 kiradaar	-0.4767
-4.6345 kis	-0.9028
-5.2366 kisane	-0.4769
-2.7410 kisee	-2.5088
-4.4584 kishanagaDh.	-0.8998
-5.2366 kishor	-0.4703
-4.3335 kisht	-1.0000
-4.3335 kism	-0.9946
-5.2366 kismat	-0.4663
-5.2366 kissaa	-0.4771
-5.2366 kisse	-0.4705
-5.2366 kisso^	-0.4663
-5.2366 kist	-0.4770
-4.3915 kitaab	-1.1682
-4.6345 kitaabe^	-0.9520
-5.2366 kitaabo^	-0.4694
-4.4584 kitanaa	-1.0791
-4.2823 kitane	-1.2302
-3.6568 kitanee	-1.6457
-4.9355 kivaaD.	-0.5979
-2.7697 kiyaa	-2.4336
-3.9578 kiyaa|	-1.4322
-4.1952 kiye	-1.1114
-4.6345 klaos	-0.8948
-4.6345 klik	-0.9424
-3.6803 knaoT	-1.5797
-2.1277 ko	-3.0896
-4.9355 koD	-0.6881
-4.3335 koTaa	-0.9998
-4.1226 koTadvaar	-1.2540
-2.6815 koee	-2.6140
-3.9578 koft	-1.3217
-4.9355 koharaa	-0.6015
-4.2823 kohare	-1.0337
-5.2366 kol	-0.4771
-3.6803 kolombiyan	-1.5797
-4.3335 kooD.aa	-0.9997
-5.2366 kooD.e	-0.4663
-3.9813 kooD.edaan	-1.2902
-4.0904 kosane	-1.2231
-4.1574 kosee	-1.1961
-4.0605 koshish	-1.3150
-5.2366 ko|	-0.4754
-5.2366 kraikar	-0.4765
-2.9533 kraonikals	-2.2854
-3.9813 kuTiyaa	-1.3054
-4.2823 kuTiyaae*	-1.0413
-4.2823 kuTiyaa|	-1.0352
-2.1995 kuchh	-2.9850
-4.6345 kuchhek	-0.9023
-3.7894 kulabulaa	-1.4760
-3.3615 kumaaoo*	-1.8710
-4.2366 kumaau*	-1.0790
-3.6803 kursee	-1.5764
-4.2823 kursiyaa*	-1.0413
-4.6345 kursiyo^	-0.7748
-3.9813 kutte	-1.3076
-4.1574 kvaalis	-1.1616
-3.6803 kvesT	-1.5896
-5.2366 kvik	-0.4771
-2.7466 kyaa	-2.4987
-3.4657 kyo^	-1.8242
-2.7509 kyo^ki	-2.5313
-5.2366 kyoo	-0.4771
-5.2366 kyoo*ki	-0.4761
-3.6345 k‍yaa	-1.6231
-4.1952 l^be	-1.1114
-4.0904 l^goor	-1.3383
-4.9355 l^gooro^	-0.5963
-5.2366 laD.akaa	-0.4771
-4.9355 laD.ake	-0.6017
-4.6345 laD.akee	-0.9434
-4.6345 laD.akiyaa*	-0.8450
-3.5206 laD.akiyo^	-1.7317
-4.1226 laDa़kiyaa^	-1.1761
-4.2366 laa	-1.0792
-5.2366 laa*ch	-0.4769
-4.1226 laabh	-1.3088
-4.0061 laad	-1.3003
-4.3335 laadaa	-0.9989
-4.5376 laae	-0.9539
-4.5376 laaee	-0.9015
-5.2366 laaeebreriyan	-0.4764
-4.1952 laaeefasTaaeel	-1.1139
-3.9813 laaeek	-1.3010
-5.2366 laaegaa	-0.4769
-4.1952 laagoo	-1.1134
-4.7595 laain	-0.6956
-4.3335 laajavaab	-0.9996
-4.7595 laakar	-0.7775
-3.3792 laal	-1.8491
-4.1952 laanaa	-1.1139
-5.2366 laane	-0.4767
-3.2921 laansaDaun	-1.9427
-5.2366 laaoo*gaa	-0.4512
-4.9355 laarj	-0.6021
-5.2366 laayaa	-0.4771
-4.0061 laayak	-1.3138
-4.9355 lad	-0.6009
-2.9533 laddaakh	-2.2873
-3.0812 lag	-2.1874
-2.8068 lagaa	-2.4028
-3.5464 lagaae	-1.7201
-4.5376 lagaaee	-0.8999
-4.9355 lagaakar	-0.6989
-4.3335 lagaanaa	-0.9973
-4.1574 lagaane	-1.1403
-5.2366 lagaataa	-0.4709
-5.2366 lagaataar	-0.4771
-4.4584 lagaate	-0.8993
-5.2366 lagaav	-0.4764
-3.5645 lagaayaa	-1.7013
-4.3335 lagaayaa|	-1.0000
-5.2366 lagaaye|	-0.4769
-3.5645 lagaa|	-1.6878
-5.2366 lagaa|patrakaareey	-0.4771
-3.3501 lagabhag	-1.9608
-4.1574 lagane	-1.1754
-3.9578 laganee	-1.3409
-3.3445 lagataa	-1.9175
-3.7181 lagate	-1.5680
-3.5931 lagatee	-1.6810
-4.3335 lagate|	-0.9998
-4.7595 lagavaa	-0.7775
-3.4237 lage	-1.8662
-5.2366 lage^ge	-0.4709
-3.4105 lagee	-1.8685
-4.3915 lagee|	-0.9725
-4.9355 lagegaa	-0.5983
-3.9813 lagegee|	-1.2942
-3.7595 lage|	-1.5471
-3.2543 laghu	-1.9907
-3.0010 laja़ाniyaa	-2.2166
-3.9813 lajjit	-1.3009
-4.2823 lakaD.	-1.0356
-3.9813 lakaD.ee	-1.2952
-4.2366 lakhanaoo	-1.0724
-5.2366 lalak	-0.4759
-4.9355 lambe	-0.6021
-5.2366 laog	-0.4770
-4.6345 laon	-0.7673
-4.1574 lapak	-1.1752
-4.9355 lapeT	-0.6014
-5.2366 lapeTe^ge	-0.4703
-3.9813 laphaD.aa	-1.2969
-4.9355 lauT	-0.6014
-5.2366 lauTaa|	-0.4770
-4.9355 lauTanaa	-0.6010
-4.9355 lauTe	-0.5952
-4.3335 lau^g	-1.0791
-4.2366 laxamaN	-1.0788
-2.7802 le	-2.4764
-3.4731 leT	-1.7960
-4.1952 leTane	-1.1091
-5.2366 leTe	-0.4768
-3.4442 le^	-1.8093
-4.7595 le^ge	-0.7450
-4.2823 le^ge|	-1.0154
-4.1952 le^saDaaun	-1.1138
-5.2366 lebal	-0.4765
-2.9001 lee	-2.3405
-5.2366 leeD	-0.4771
-4.9355 lee^	-0.6017
-3.9813 lee^|	-1.2995
-4.1574 leejie	-1.1429
-5.2366 leejie|	-0.4770
-5.2366 leen	-0.4751
-4.0325 lee|	-1.2771
-4.7595 legaa	-0.8180
-5.2366 leh	-0.4763
-3.6133 lekar	-1.7483
-2.6719 lekh	-2.5208
-2.8600 lekhan	-2.3590
-5.2366 lekho^	-0.4705
-2.3971 lekin	-2.8589
-3.7894 lenaa	-1.5269
-3.2072 lene	-2.0501
-4.9355 lene^	-0.5912
-3.5376 lenee	-1.7407
-4.2366 lens	-1.0715
-4.1952 letaa	-1.1084
-3.4962 lete	-1.7562
-5.2366 letee	-0.4765
-4.9355 lete|	-0.5993
-5.2366 le|	-0.4769
-4.0904 li^k	-1.2766
-2.5673 lie	-2.6568
-3.2366 lie|	-2.0294
-4.4584 lifT	-0.9030
-3.6568 likh	-1.6707
-2.8692 likhaa	-2.3429
-5.2366 likhaaee	-0.4694
-3.9813 likhanaa	-1.4015
-3.8216 likhane	-1.5033
-4.7595 likhataa	-0.7725
-3.7051 likhate	-1.5802
-4.2366 likhe	-1.0766
-5.2366 likhe^	-0.4737
-5.2366 likhe^ge	-0.4770
-4.0325 likhee	-1.2977
-3.9355 likho	-1.3612
-4.9355 likhoo*gaa|	-0.5761
-4.9355 likho|	-0.5952
-3.9144 lipi	-1.3688
-4.2366 lipiyo^	-1.0738
-3.7051 lisT	-1.5520
-3.9813 liy	-1.3010
-2.8052 liyaa	-2.4294
-3.4962 liyaa|	-1.7918
-4.3335 liye	-1.2021
-4.7595 lo	-0.7456
-4.7595 loD	-0.7749
-4.1952 loTane	-1.1086
-3.9813 lodhee	-1.3010
-2.6660 log	-2.5998
-4.2366 logabaag.	-1.1138
-2.8941 logo^	-2.2928
-4.9355 lohe	-0.5967
-3.7894 lokal	-1.4889
-3.9813 lokapriy	-1.3212
-3.9355 lokeshan	-1.3390
-4.0325 loo*	-1.3101
-4.9355 loo*|	-0.6006
-5.2366 looT	-0.4767
-4.9355 looTane	-0.6014
-5.2366 luTeraa	-0.4722
-5.2366 luTere	-0.4769
-4.3335 lubhaavanaa	-0.9999
-4.9355 m^ch	-0.6887
-4.3335 m^daakinee|	-0.9741
-3.0519 m^dir	-2.1588
-3.9355 m^diro^	-1.3316
-4.2366 m^gateshvar	-1.0790
-4.3335 m^gavaa	-0.9993
-4.9355 m^gavaaee|	-0.5761
-4.2823 m^gavaayaa	-1.0403
-4.9355 m^hage	-0.6021
-4.7595 m^tr	-0.6934
-4.2366 m^zil	-1.1150
-3.4962 maNDal	-1.7655
-5.2366 maNDalee	-0.4765
-4.0605 maa*	-1.3156
-4.9355 maa*gane	-0.5967
-4.9355 maa*gate	-0.6014
-4.9355 maa*ge^ge	-0.6019
-4.9355 maa*gee|	-0.6006
-5.2366 maa*g|	-0.4512
-5.2366 maaDal	-0.4771
-3.9355 maa^saahaaree	-1.3411
-5.2366 maabaail	-0.4737
-4.6345 maadaa	-0.8416
-5.2366 maaee	-0.4771
-5.2366 maaf	-0.4767
-5.2366 maafik	-0.4746
-4.6345 maah	-0.9018
-4.0605 maahaul	-1.2622
-4.9355 maaik|	-0.5761
-5.2366 maailej	-0.4694
-2.9465 maal	-2.2649
-4.0904 maalik	-1.2840
-5.2366 maalish	-0.4758
-4.9355 maaloom	-0.6020
-4.0061 maamalaa	-1.3908
-4.6345 maamale	-0.7673
-5.2366 maamalo^	-0.4663
-4.7595 maamoolee	-0.7778
-4.6345 maan	-0.8981
-3.8941 maanaa	-1.4070
-3.9144 maananaa	-1.3562
-5.2366 maanane	-0.4705
-3.2543 maanasik	-1.9910
-3.7742 maanasikataa	-1.5104
-4.6345 maanataa	-0.7777
-5.2366 maanate	-0.4771
-5.2366 maane|	-0.4512
-4.7595 maanie	-0.8429
-3.6345 maanie|ham	-1.6229
-3.7894 maano	-1.5048
-4.9355 maano^	-0.6988
-5.2366 maanoo*gaa	-0.4771
-4.9355 maaph	-0.6020
-4.1226 maar	-1.2029
-4.9355 maarane	-0.6826
-5.2366 maarch	-0.4663
-5.2366 maaree	-0.4703
-3.2728 maarg	-1.9585
-4.6345 maargadarshak	-0.7781
-4.6345 maargadarshan	-0.7779
-3.9355 maarkeT	-1.3421
-3.9813 maaro|	-1.2993
-4.9355 maasik	-0.6990
-5.2366 maat	-0.4770
-4.9355 maataa	-0.5943
-4.9355 maataae	-0.6021
-4.1574 maataajee	-1.1745
-5.2366 maathe	-0.4754
-4.7595 maatr	-0.7755
-5.2366 maazaraa	-0.4763
-4.2823 machal	-1.0403
-5.2366 machchhaar	-0.4771
-3.2543 machchhar	-2.0053
-5.2366 machchharadaanee	-0.4771
-5.2366 machchharadaanee|	-0.4756
-4.0605 machchharo^	-1.2609
-5.2366 machhalee	-0.4770
-5.2366 machhaliyaa*	-0.4769
-4.1952 madhur	-1.1136
-3.8748 madhy	-1.4041
-4.1952 madiraapaan	-1.1385
-3.8386 maee	-1.4284
-3.6455 magar	-1.6329
-5.2366 mah^gaa	-0.4771
-4.9355 mah^ge	-0.6968
-3.4442 mahaadev	-1.7958
-4.6345 mahaanagar	-0.7781
-5.2366 mahaanagaro^	-0.4663
-4.3335 mahaanubhaav	-0.9923
-5.2366 mahaarathee	-0.4771
-4.9355 mahaashay	-0.6916
-3.9813 mahaaveer	-1.2751
-4.0325 mahafil	-1.2787
-5.2366 mahakane	-0.4771
-3.2543 mahakataa	-1.9895
-4.4584 mahal	-1.0342
-3.6133 mahasoos	-1.6755
-5.2366 mahaz	-0.4771
-5.2366 maheenaa	-0.4722
-3.5464 maheene	-1.7108
-3.8941 maheeno^	-1.3858
-3.9813 mahilaa	-1.3010
-4.9355 mahimaa	-0.5972
-4.9355 mahine	-0.6011
-4.0325 mahoday	-1.3260
-4.9355 mai	-0.5979
-2.3829 mai^	-2.8199
-3.8564 mai^go	-1.4149
-2.5164 mai^ne	-2.7268
-4.9355 maidaan	-0.5952
-3.9578 maine	-1.3419
-3.9813 mainej	-1.3007
-3.9813 mainejamainT	-1.3005
-4.9355 maise^jar	-0.5912
-3.4105 majaa	-1.8610
-4.0061 majaboor	-1.2972
-5.2366 maja़ा	-0.4771
-3.8941 maje	-1.4036
-4.6345 majedaar	-0.9030
-4.1952 makasad	-1.1675
-4.4584 makkhan	-0.9026
-5.2366 maleriyaa	-0.4694
-5.2366 maleriyo	-0.4771
-3.0139 man	-2.2308
-4.0061 manaa	-1.2993
-3.9813 manaanaa	-1.2751
-5.2366 manachale	-0.4771
-4.7595 manamohak	-0.7754
-4.9355 manasikataa	-0.5958
-4.2366 mandir	-1.1095
-4.6345 mandiro^	-0.8342
-5.2366 manee	-0.4770
-4.0605 maneeSh	-1.2875
-5.2366 manjoor|	-0.4766
-4.6345 mannat	-0.8451
-3.6568 manoj	-1.6216
-5.2366 manor^jan	-0.4713
-3.7181 manoram	-1.5562
-3.9355 manuShy	-1.3386
-4.9355 manzil	-0.6006
-4.3915 maoDal	-1.0711
-4.1952 maol	-1.1139
-4.9355 maorni^g	-0.6021
-4.0325 mare	-1.2765
-4.9355 marzee	-0.5967
-3.8386 masaalaa	-1.4709
-5.2366 masaale	-0.4718
-5.2366 masale	-0.4737
-5.2366 masaudaa	-0.4759
-4.9355 mashahoor	-0.6020
-4.7595 mashakkat	-0.7645
-3.4584 masharoom	-1.7922
-4.5376 masheen	-1.0410
-3.7894 masjid	-1.4946
-4.9355 masjido^	-0.5952
-3.8564 mast	-1.4756
-3.8564 mastee	-1.4363
-5.2366 mastiShk	-0.4771
-3.5376 mat	-1.7398
-4.9355 matabhed	-0.6020
-3.9813 matalab	-1.3766
-5.2366 matrikaa	-0.4663
-5.2366 mat|	-0.4768
-3.8941 mauj	-1.4123
-3.3792 maujood	-1.9469
-4.1574 maujoodaa	-1.2302
-3.9813 maukaa	-1.3009
-4.0904 mausam	-1.2647
-5.2366 mausee	-0.4756
-4.9355 mayoor	-0.6018
-3.8052 mazaa	-1.5186
-4.4584 mazaak	-0.8922
-4.2823 mazaa|	-1.0396
-4.9355 mazedaar	-0.6978
-3.4372 me	-1.8715
-5.2366 me*	-0.4747
-1.6072 me^	-3.4421
-3.8052 me^|	-1.4647
-5.2366 meeDil	-0.4771
-4.9355 meeTar	-0.6979
-4.7595 meel	-0.8435
-5.2366 mehanat	-0.4771
-5.2366 mek	-0.4771
-4.9355 mel	-0.6945
-5.2366 menakaa	-0.4756
-4.7595 menoo	-0.7640
-4.1574 meraTh	-1.2178
-2.8825 meraa	-2.3864
-2.6323 mere	-2.6042
-2.3362 meree	-2.8963
-4.6345 mesenjar	-0.8918
-4.9355 mevaa	-0.6020
-5.2366 miTaa	-0.4765
-5.2366 miTaane	-0.4703
-3.2195 mil	-2.0695
-3.4807 milaa	-1.7938
-4.9355 milaataa	-0.6016
-3.8052 milaa|	-1.4902
-4.1226 milakar	-1.1761
-3.9144 milanaa	-1.3791
-4.4584 milane	-0.8977
-4.9355 milataa	-0.6971
-5.2366 milataa|	-0.4766
-4.0605 milate	-1.2785
-4.3335 mile	-1.1378
-3.8216 mile^	-1.4467
-4.9355 mile^ge	-0.6013
-4.1226 mile^ge|	-1.1501
-3.7051 milee	-1.5969
-4.1952 milee^	-1.1125
-4.1226 milee|	-1.2299
-4.0325 milegaa	-1.2954
-4.9355 milegee|	-0.6989
-4.3335 mile|	-1.0000
-5.2366 milk	-0.4771
-3.1538 minaT	-2.0804
-5.2366 minee	-0.4771
-4.9355 mirchee	-0.6021
-5.2366 mishr	-0.4763
-4.2366 mishraN	-1.0788
-5.2366 mishraa	-0.4763
-5.2366 mishrit	-0.4767
-4.1226 mitr	-1.3051
-3.8052 mitro^	-1.4762
-4.1952 moD.aa	-1.1128
-4.9355 moD.o^	-0.5943
-5.2366 moDa़	-0.4770
-5.2366 moTaa	-0.4709
-4.9355 moTaapaa	-0.5993
-5.2366 moTaape	-0.4713
-4.1952 moTarasaaeekil	-1.1138
-4.4584 moTarasaaikal	-1.0749
-5.2366 moTarasaaikalo^	-0.4739
-4.3915 moTe	-0.9927
-3.0693 mobaaeel	-2.1854
-5.2366 mobaaeelo^	-0.4737
-3.7894 mobaail	-1.5734
-5.2366 mobaaile^	-0.4765
-4.9355 mobaailo^	-0.5912
-4.6345 mochinee	-0.7778
-4.2823 modeenagar	-1.0414
-4.4584 moeenuddeen	-0.9031
-3.9813 moh	-1.3003
-4.1952 mohabbat	-1.1336
-4.1952 mohalle	-1.1073
-4.3335 mohammad	-1.0000
-4.9355 moharram	-0.6016
-5.2366 mohataramaa	-0.4771
-5.2366 mohataramaae*	-0.4752
-4.2366 mohindar	-1.0791
-5.2366 mohit	-0.4758
-5.2366 mol	-0.4771
-4.3335 molabhaav	-0.9923
-3.1797 monToo	-2.0571
-4.7595 mooDh.	-0.8358
-5.2366 mooDh.ataa	-0.4737
-3.7452 moorkh	-1.5371
-4.9355 moortiyaa*	-0.6015
-4.7595 moovebal	-0.6989
-4.9355 mor	-0.6021
-5.2366 moskeeTo	-0.4771
-5.2366 motee	-0.4694
-4.4584 mu*h	-0.9823
-4.1574 muD.	-1.1454
-4.1952 mubaarak	-1.1139
-4.7595 muddaa	-0.8358
-4.9355 mudde	-0.5963
-4.5376 muft	-1.0322
-4.9355 mug.al	-0.6021
-5.2366 muhaiyaa	-0.4767
-4.9355 muhoort	-0.5912
-4.9355 mujh	-0.6813
-5.2366 mujhako	-0.4771
-4.9355 mujhase	-0.6989
-2.7863 mujhe	-2.4871
-4.1952 mukaabale	-1.1970
-5.2366 mukadamaa	-0.4766
-3.9144 mukhy	-1.3976
-5.2366 mukt	-0.4771
-2.7207 mukteshvar	-2.4835
-3.9355 mukund	-1.3416
-4.1226 muk‍tesh‍var	-1.1752
-4.1574 mullaa	-1.1453
-4.6345 mullaao^	-0.7704
-5.2366 munaafe	-0.4718
-5.2366 murkho^	-0.4705
-3.9355 mushkil	-1.3547
-4.0904 muslim	-1.2304
-4.9355 muslimo^	-0.5943
-5.2366 mutaabik	-0.4770
-4.9355 myoozik	-0.6021
-4.3335 myoozikal	-1.0000
-3.0244 n	-2.2631
-4.9355 nRty	-0.6007
-3.6133 n^bar	-1.7006
-4.4584 n^daadevee	-0.9996
-3.9813 naa	-1.3901
-4.2823 naach	-1.0413
-3.9813 naachanaa	-1.3010
-4.9355 naaee^saaphee	-0.5965
-4.1952 naaeekee	-1.1082
-5.2366 naahar	-0.4512
-4.3335 naaiT	-0.9946
-5.2366 naaja़	-0.4771
-5.2366 naakaare	-0.4767
-5.2366 naalee	-0.4709
-3.3072 naam	-1.9607
-4.2366 naamak	-1.1457
-5.2366 naapaa	-0.4716
-3.9355 naaraajagee	-1.3562
-3.9578 naaraaz	-1.3197
-4.2366 naaraazagee	-1.0743
-4.9355 naarad	-0.6910
-4.9355 naasamajhee	-0.6730
-4.0605 naashtaa	-1.2948
-3.6345 naashte	-1.6429
-4.1226 naathaa	-1.1760
-4.2823 nadee	-1.1001
-3.5290 nae	-1.7840
-2.8101 naee	-2.4406
-4.3335 nag	-0.9999
-5.2366 nagaNy	-0.4771
-4.6345 nagar	-0.7781
-4.9355 nagn	-0.6017
-4.4584 nahaa	-0.9031
-4.4584 nahaayaa	-0.9030
-3.1538 nahee	-2.1236
-4.1226 nahee*	-1.1760
-1.9524 nahee^	-3.1902
-3.2971 nahee^|	-1.9639
-5.2366 nain	-0.4771
-5.2366 naineetaal	-0.4703
-3.8564 najar	-1.4572
-5.2366 najariyaa	-0.4771
-2.3958 naja़r	-2.8345
-4.2366 najeebaabaad	-1.1068
-5.2366 nakaare	-0.4769
-5.2366 nakharaa	-0.4770
-5.2366 nakhare	-0.4771
-5.2366 naksh	-0.4767
-4.1574 nakshe	-1.1652
-4.1574 namaskaar	-1.1743
-3.9355 namastaॆ	-1.3406
-3.9355 namaste|	-1.3424
-5.2366 name:	-0.4771
-5.2366 namoonaa	-0.4771
-4.9355 namoone	-0.6730
-4.7595 naoT	-0.8451
-4.4584 nar	-0.9463
-5.2366 naresh	-0.4771
-5.2366 naroolaa	-0.4769
-5.2366 naseeb	-0.4768
-4.2823 nashaa	-1.0413
-4.3335 nashe	-0.9891
-4.3335 nasheD.ee	-1.0000
-4.2823 nateejan	-1.0407
-4.4584 nateeje	-0.8964
-5.2366 nathuno^	-0.4739
-3.3792 nau	-1.8951
-4.4584 nauT^kiyaa*	-0.9029
-3.8216 naukaa	-1.4662
-4.3335 naukaae*	-1.0000
-4.9355 naukaao^	-0.5912
-4.0325 naukaavihaar	-1.2656
-3.9578 naukaree	-1.3279
-3.0407 nav	-2.2009
-4.3335 nav^bar	-1.0604
-4.9355 navavarSh	-0.5963
-3.3072 nayaa	-1.9816
-4.1952 naye	-1.1138
-3.6133 nazaaraa	-1.6702
-4.5376 nazaare	-0.9533
-4.9355 nazaaro^	-0.5988
-3.7314 nazar	-1.6049
-4.9355 nazaraa^daaz	-0.6017
-5.2366 nazarie	-0.4718
-2.4512 ne	-2.7583
-5.2366 neT	-0.4770
-4.9355 neTavark	-0.6955
-5.2366 neeD	-0.4771
-3.7051 nee^d	-1.6064
-3.0722 neeche	-2.1967
-4.6345 neelaamee	-0.8405
-4.3915 neeraj	-1.0748
-4.1952 niShThaa	-1.1073
-4.9355 niShkriy	-0.6923
-5.2366 nibaTaa	-0.4747
-5.2366 nibhaane	-0.4718
-4.6345 nidhi	-0.8905
-4.0325 nidraa	-1.3007
-3.8941 nigaah	-1.4196
-5.2366 nigaaho^	-0.4705
-4.0904 nigam	-1.2407
-5.2366 nigoDa़ो^	-0.4771
-4.9355 nihaarate	-0.6020
-5.2366 nijee	-0.4771
-5.2366 nikRShT	-0.4771
-4.7595 nikaT	-0.6990
-4.1226 nikaal	-1.2989
-5.2366 nikaalaa	-0.4761
-4.1952 nikaalane	-1.1107
-4.5376 nikaalataa	-0.9450
-5.2366 nikaalate	-0.4767
-4.9355 nikaalee	-0.5952
-4.9355 nikaas	-0.6020
-3.2072 nikal	-2.1000
-3.8564 nikalaa	-1.4510
-4.1574 nikalanaa	-1.1759
-4.0605 nikalane	-1.2432
-4.2823 nikalate	-1.0715
-4.9355 nikalatee	-0.6019
-4.4584 nikalavaa	-0.9029
-3.6925 nikale	-1.5974
-5.2366 nikaloo*	-0.4771
-4.2823 nikat	-1.0412
-5.2366 nimn	-0.4770
-4.9355 nipaT	-0.6981
-4.3335 nipaTaa	-1.0330
-4.3335 nipaTaanaa	-0.9989
-4.6345 nipaTaayaa	-0.8380
-4.3915 nipaTane	-0.9465
-3.4170 nirNay	-1.8497
-4.7595 nir^tar	-0.7778
-4.0061 niraash	-1.2739
-4.1952 niraashaa	-1.1101
-4.7595 nirbhar	-0.6988
-4.3335 nirdesh	-0.9999
-4.3335 nirdesho^	-0.9923
-5.2366 nirjeev	-0.4771
-5.2366 nirmaataa	-0.4694
-5.2366 nirmaataao^	-0.4713
-4.9355 nirpex	-0.6020
-4.1952 nishaa^t	-1.1131
-4.6345 nishchay	-0.7774
-5.2366 nishchit	-0.4771
-5.2366 nit	-0.4764
-3.4807 nivaas	-1.7780
-4.9355 niyam	-0.6934
-4.9355 niyamit	-0.6990
-5.2366 niyamo^	-0.4663
-4.9355 niyukt	-0.6019
-3.3335 nizaam	-1.9027
-3.4731 nizaams	-1.7799
-3.5123 nizaamuddeen	-1.7522
-4.9355 no	-0.6020
-5.2366 noT	-0.4758
-5.2366 noTpaiD	-0.4512
-4.9355 nokeeyaa	-0.6021
-4.4584 nokiaa	-0.9940
-5.2366 nyaayapoorvak	-0.4703
-3.9355 nyoo	-1.3424
-4.9355 nyoonatam	-0.6934
-5.2366 n|	-0.4770
-4.9355 oDa़िshaa	-0.5967
-4.9355 oDh.	-0.6014
-4.2366 oh	-1.0790
-4.5376 oke	-0.9030
-4.6345 ole	-0.8451
-4.9355 olo^	-0.5963
-5.2366 on	-0.4770
-4.2366 oo	-1.0792
-4.2366 oo*chaaee	-1.0758
-4.6345 oo*chee	-0.8382
-3.0663 oopar	-2.2038
-4.9355 ooparee	-0.5996
-5.2366 operaa	-0.4771
-2.9164 or	-2.3425
-3.1095 orachhaa	-2.1149
-4.3335 or|	-1.0411
-4.2366 pRShThabhoomi	-1.0683
-3.9355 pRthveeraaj	-1.3423
-4.6345 p^De	-0.8347
-3.9144 p^Dit	-1.3542
-4.9355 p^Do^	-0.5943
-4.3335 p^drah	-1.0403
-3.8564 p^gaa	-1.4542
-4.0605 p^kaj	-1.2747
-4.9355 p^kti	-0.6014
-4.4584 p^p	-0.9029
-3.6345 paD.	-1.6677
-3.1721 paD.aa	-2.0665
-4.3335 paD.aav	-1.0412
-4.1952 paD.aa|	-1.1465
-4.9355 paD.ane	-0.5943
-3.8564 paD.ataa	-1.4394
-3.9578 paD.ataa|	-1.3359
-4.4584 paD.atee	-0.9470
-3.2409 paD.e	-2.0186
-4.3335 paD.e^ge|	-0.9741
-3.5123 paD.ee	-1.7562
-4.2823 paD.ee|	-1.0776
-3.6238 paD.egaa	-1.6385
-4.9355 paD.egaa|	-0.5761
-4.3335 paD.egee	-0.9741
-5.2366 paD.egee|	-0.4512
-3.7452 paD.e|	-1.5748
-5.2366 paDaa	-0.4765
-5.2366 paDa़ा	-0.4512
-4.1226 paDa़ी	-1.1755
-4.9355 paDe	-0.5761
-4.1574 paDegaa	-1.1501
-4.2366 paDegaa…	-1.0532
-3.5738 paDh.	-1.7293
-4.1574 paDh.aa	-1.1753
-4.6345 paDh.aatee	-0.9023
-3.9144 paDh.akar	-1.3977
-4.7595 paDh.anaa	-0.7779
-3.9578 paDh.ane	-1.4005
-4.1952 paDh.ataa	-1.1434
-4.9355 paDh.avaanaa	-0.6892
-4.1226 paDh.e	-1.2278
-4.7595 paDh.e^	-0.8111
-4.9355 paDh.e^ge	-0.5958
-5.2366 paDh.egaa	-0.4754
-4.9355 paDh.ie|	-0.6988
-3.6568 paDhakar	-1.6123
-5.2366 paDhanaa	-0.4771
-3.9144 paDhate	-1.3973
-4.9355 paDha़	-0.6984
-5.2366 paDha़naa	-0.4722
-5.2366 paDha़ne	-0.4718
-5.2366 paDha़ा	-0.4744
-4.9355 paDha़ाee	-0.6927
-4.9355 paDha़ा|	-0.6021
-5.2366 paDha़िe	-0.4767
-3.9813 paDha़िyegaa|	-1.2751
-4.1226 paDha़े	-1.1757
-5.2366 paTTee	-0.4770
-4.4584 paTakaa	-0.9029
-5.2366 paTegee|	-0.4512
-3.1721 paThaneey	-2.0381
-4.1952 paa	-1.1128
-3.2634 paa*ch	-2.0006
-5.2366 paa*chavee^	-0.4763
-4.3335 paa*cho^	-0.9999
-4.9355 paa*v	-0.6021
-4.9355 paaTh	-0.6911
-5.2366 paaThak	-0.4770
-5.2366 paaThako^	-0.4739
-4.6345 paa^ch	-0.9542
-3.9355 paae	-1.3902
-2.9488 paae*	-2.2663
-4.9355 paae*ge	-0.6013
-5.2366 paae*gee	-0.4761
-5.2366 paaegaa	-0.4771
-4.4584 paae|	-0.8771
-4.9355 paagal	-0.6005
-4.7595 paalaa	-0.8424
-5.2366 paalan	-0.4771
-4.6345 paalikaa	-0.8130
-5.2366 paan	-0.4718
-4.7595 paane	-0.7645
-3.2728 paanee	-1.9880
-3.7894 paap	-1.5166
-4.9355 paapaD.	-0.6020
-5.2366 paapaa	-0.4694
-4.3335 paapo^	-0.9891
-4.3335 paar	-1.0400
-4.3335 paaradarshee	-1.0000
-4.4584 paark	-1.0245
-3.9578 paarki^g	-1.3256
-2.8510 paas	-2.3548
-4.0605 paate	-1.2750
-5.2366 paatee	-0.4752
-5.2366 paate|	-0.4512
-3.6925 paauch	-1.5792
-4.1226 paauch|	-1.1501
-3.8564 paayaa	-1.4358
-4.2366 paayaa|	-1.1115
-3.9355 paaye	-1.3377
-4.9355 paayegaa	-0.6658
-5.2366 pachhaaD.aa	-0.4716
-4.9355 pad	-0.6982
-4.1226 pahaaD.	-1.1703
-3.5042 pahaaD.ee	-1.7604
-5.2366 pahaaD.iyaa*	-0.4512
-4.3335 pahaaD.iyo^	-0.9946
-3.7452 pahaaD.o^	-1.5171
-3.9355 pahaaDo	-1.3366
-5.2366 pahachaan	-0.4746
-4.3915 pahal	-0.9993
-3.7595 pahalaa	-1.5766
-2.5562 pahale	-2.6853
-3.5834 pahalee	-1.7431
-5.2366 pahale|	-0.4756
-3.8564 pahan	-1.4719
-3.9813 pahanaa	-1.2997
-4.1226 pahananaa	-1.1759
-4.0904 pahane	-1.2488
-4.9355 paheliyaa*	-0.6990
-5.2366 paheliyo^	-0.4713
-4.1226 pahoo*chaa	-1.1755
-2.6707 pahu*ch	-2.5683
-3.8748 pahu*chaa	-1.4312
-5.2366 pahu*chaa|	-0.4512
-3.7894 pahu*chanaa	-1.5012
-3.4807 pahu*chane	-1.7835
-3.8216 pahu*chate	-1.4873
-3.5645 pahu*che	-1.7174
-5.2366 pahu*chee	-0.4756
-3.6925 pahu*che|	-1.6098
-3.9813 pahu^chaa	-1.3004
-5.2366 pai^taalees	-0.4705
-4.9355 paidaa	-0.6988
-5.2366 paidaaeeshee	-0.4771
-4.2366 paidal	-1.1095
-3.9813 paig	-1.3153
-4.1952 paik	-1.1091
-4.3335 paikD	-1.0000
-4.6345 paikeT	-0.8450
-4.0605 painT	-1.2552
-4.2823 pair	-1.0791
-4.1952 pairaagraaf	-1.1031
-4.2823 pairo^	-1.0305
-4.9355 paisaa	-0.5972
-3.6455 paise	-1.7005
-4.1952 paiso^	-1.1082
-3.6568 pakaD.	-1.6454
-5.2366 pakaD.aa	-0.4771
-5.2366 pakaD.aaee|	-0.4769
-4.4584 pakaD.aa|	-0.9029
-4.1952 pakaD.anaa	-1.1138
-3.7742 pakaD.ane	-1.5089
-4.3335 pakaD.anee	-0.9985
-3.8052 pakaD.ee	-1.5036
-4.5376 pakaD.ee|	-0.9534
-5.2366 pakaDa़	-0.4764
-5.2366 pakaDa़taa	-0.4769
-5.2366 pakaDa़ा	-0.4771
-5.2366 pakaDa़ो	-0.4771
-4.3335 pakkaa	-1.0386
-4.3335 pal	-0.9990
-4.3335 palaT	-0.9923
-5.2366 palaTate	-0.4765
-4.3335 palaTe	-0.9932
-5.2366 palle	-0.4733
-3.6803 pallu	-1.5749
-5.2366 pandrah	-0.4771
-3.2498 pannaa	-1.9740
-3.2498 panne	-1.9697
-5.2366 paoDakaosT	-0.4730
-4.6345 paolisee	-0.8829
-2.1082 par	-3.0631
-4.9355 par^tu	-0.6013
-4.9355 paraa^Tho^	-0.5963
-5.2366 parahej	-0.4771
-4.9355 parakh	-0.5943
-5.2366 parakhe	-0.4733
-3.3853 parantu	-1.9260
-4.2366 paraphaikT	-1.0783
-3.9578 paraso^	-1.3382
-5.2366 parat^trataa	-0.4718
-3.9355 paravaah	-1.3608
-5.2366 parchee	-0.4737
-4.9355 pardaa	-0.6990
-4.2823 paree	-1.0787
-5.2366 pareexaa	-0.4694
-5.2366 pariNaam	-0.4759
-4.7595 paricharchaa	-0.7689
-4.1226 parichay	-1.2227
-4.9355 parikramaa	-0.6020
-4.9355 parikramaae*	-0.6020
-5.2366 paripakv	-0.4771
-4.9355 parisar	-0.5912
-4.3335 parivaaro^	-0.9932
-4.9355 parivartan	-0.6915
-4.9355 parl	-0.6864
-4.3335 paros	-0.9994
-4.1226 pars	-1.1757
-3.8941 parvat	-1.4100
-4.9355 parvataarohaN	-0.5967
-4.4584 parvateey	-0.9030
-3.0352 parvato^	-2.1907
-3.7742 paryaTak	-1.5497
-4.0061 paryaTako^	-1.2911
-3.8564 paryaTan	-1.4620
-4.6345 paryaTn	-0.8450
-4.0605 paryaapt	-1.2663
-3.4105 par|	-1.8294
-3.2588 pas^d	-2.0097
-2.7682 pas^deedaa	-2.4704
-4.4584 pasar	-0.9020
-4.3335 paseenaa	-1.0000
-4.9355 pashchaat	-0.6982
-4.3335 pashchim	-0.9891
-2.7115 pataa	-2.5187
-4.1574 patalee	-1.1758
-4.4584 pate	-0.9920
-4.9355 path	-0.5954
-4.9355 pathareele	-0.6018
-4.9355 patr	-0.6020
-4.1574 patrikaa	-1.1652
-3.9578 patthar	-1.3506
-5.2366 pattharo^	-0.4737
-4.4584 pau	-0.9031
-4.9355 paune	-0.6019
-5.2366 pax	-0.4771
-4.5376 pe	-1.0386
-4.1226 peD.	-1.2238
-4.9355 peD.|	-0.6009
-3.9578 peT	-1.3422
-4.3335 peTabhar	-0.9999
-4.4584 peTrol	-0.9031
-5.2366 pe^T	-0.4703
-3.5738 pee	-1.7131
-4.3335 peeD.it	-0.9980
-4.1226 peechhaa	-1.2291
-3.3389 peechhe	-1.9464
-5.2366 peechhe|	-0.4770
-4.1952 peeenaaar	-1.1138
-3.5290 peene	-1.7467
-4.9355 peeriyaD	-0.6826
-4.9355 peetaa	-0.5972
-4.6345 peete	-0.7744
-5.2366 peetee	-0.4755
-4.9355 pee|	-0.6020
-4.1226 pesT	-1.1754
-3.9813 pesTree	-1.3005
-5.2366 pesh	-0.4771
-5.2366 peshe	-0.4705
-4.9355 peshevar	-0.6021
-4.2366 pey	-1.0786
-4.4584 phaT	-0.8964
-5.2366 phaTTe	-0.4703
-5.2366 phaTaaphaT	-0.4771
-4.4584 phaTane	-0.9027
-5.2366 phaTe	-0.4771
-4.3335 phaTehaal	-0.9999
-4.1574 phaalatoo	-1.1460
-4.1952 phaasalaa	-1.1138
-4.1952 phaasale	-1.1105
-3.9813 phaayadaa	-1.3009
-4.6345 phailaa	-0.7775
-5.2366 phailaakar	-0.4771
-3.7894 phailataa	-1.4765
-4.9355 phailate	-0.6020
-4.9355 phaile	-0.6021
-4.1952 phaimilee	-1.1138
-5.2366 phanne	-0.4771
-4.7595 phaor	-0.8451
-4.9355 pharr	-0.6018
-5.2366 pharshaTeshan	-0.4771
-2.9533 pha़laapha़ls	-2.2636
-2.9488 pha़ेli^g	-2.2918
-3.2498 pheeD	-1.9954
-4.3335 pheeT	-0.9942
-5.2366 pher	-0.4770
-4.9355 phere	-0.5958
-3.9813 phiT	-1.2983
-5.2366 phidaa	-0.4746
-5.2366 philahaal	-0.4766
-5.2366 philip	-0.4763
-4.7595 philm	-0.7727
-2.8767 phir	-2.3583
-4.4584 phirane	-0.8977
-3.4884 phoTo	-1.8136
-3.2543 phoTograafee	-1.9653
-5.2366 phoTograapha़ी	-0.4770
-4.6345 phoToo	-0.9031
-4.6345 phoTue^	-0.8450
-3.9355 phoTuye^	-1.3614
-4.7595 pho^T	-0.7650
-5.2366 phokaT	-0.4663
-3.3021 phon	-2.0057
-4.9355 phono^	-0.6878
-5.2366 phonuvaa	-0.4713
-5.2366 phooTaa	-0.4744
-4.9355 phool	-0.6013
-4.3335 phoolo^	-0.9923
-4.2366 phoomaa	-1.1080
-5.2366 phoon	-0.4771
-5.2366 phraam	-0.4771
-4.9355 phree	-0.6910
-4.3335 phrem	-0.9998
-5.2366 phulkaa	-0.4769
-4.4584 phulke	-0.9030
-5.2366 phulkee	-0.4766
-5.2366 phurasatiyaa	-0.4763
-5.2366 phurat	-0.4767
-5.2366 phyoochar	-0.4771
-3.9813 piTTee	-1.3010
-4.6345 pi^jare	-0.8263
-3.3021 pichhale	-1.9900
-3.3615 pichhalee	-1.9116
-4.3335 pighalee	-0.9951
-5.2366 pik	-0.4771
-3.6345 pilaag	-1.6124
-3.9355 pilaagaspaॊT	-1.3316
-4.3335 pille	-1.0506
-3.7894 pirogaraam	-1.4897
-4.3335 piyaa	-0.9989
-4.9355 plaani^g	-0.6021
-5.2366 plaoni^g	-0.4771
-4.1226 pleTafaorm	-1.2007
-4.4584 pleTe^	-0.9025
-3.6803 ples	-1.5876
-4.4584 pleyar	-0.9003
-4.9355 poShT	-0.6017
-5.2366 poShaN	-0.4764
-4.7595 pojishan	-0.6989
-4.3335 polaraaizar	-0.9993
-3.9813 poochh	-1.3382
-3.2775 poochhaa	-1.9784
-4.6345 poochhanaa	-0.9014
-3.5834 poochhane	-1.6747
-5.2366 poochhataa	-0.4724
-5.2366 poochhataachh	-0.4713
-3.7894 poochhate	-1.5020
-3.9813 poochhatee^	-1.2991
-3.9355 poochhe	-1.3362
-5.2366 poochhe^	-0.4724
-5.2366 poochhegaa	-0.4771
-3.9144 poochho	-1.3934
-3.5645 poojaa	-1.7037
-5.2366 pooje	-0.4769
-3.8386 poorN	-1.5041
-3.9813 poorNat:	-1.3010
-5.2366 poorNatayaa	-0.4771
-3.2728 pooraa	-2.0184
-3.6238 poore	-1.6808
-3.4105 pooree	-1.8893
-4.1952 poorv	-1.1738
-3.8216 poorvaagrah	-1.4346
-4.9355 poorvaagraho^	-0.5954
-4.6345 poorvee	-0.8427
-4.1952 popaT	-1.1135
-4.7595 porTal	-0.7779
-2.8825 posT	-2.3490
-4.9355 posTo^	-0.6899
-4.6345 poz	-0.8341
-4.9355 praa^gaN	-0.5912
-4.2366 praacheen	-1.0791
-4.9355 praaeeveT	-0.6019
-5.2366 praaparTee	-0.4713
-4.7595 praapt	-0.8428
-3.8748 praarthanaa	-1.4094
-4.1952 prab^dh	-1.1447
-5.2366 prab^dhak	-0.4771
-4.2823 prabandh	-1.0388
-4.9355 prabhaat	-0.6012
-4.2366 prabhaav	-1.0737
-4.9355 prabhaavit	-0.6976
-4.0061 pradaan	-1.3330
-3.8941 pradesh	-1.3543
-4.6345 pradhaanaachaaryaa	-0.8930
-5.2366 prakaT	-0.4758
-3.6568 prakaar	-1.6133
-5.2366 prakaash	-0.4771
-5.2366 prakaashit	-0.4764
-5.2366 prakaraN	-0.4663
-5.2366 prakriyaae*	-0.4770
-4.9355 pramukh	-0.6020
-3.9813 prasaad	-1.3613
-5.2366 prasaarit	-0.4767
-3.9578 prasann	-1.3554
-4.9355 prasannachit	-0.6021
-3.0139 prasannataa	-2.2323
-5.2366 prash^saa	-0.4764
-4.2823 prashn	-1.1976
-4.7595 prashno^	-0.8271
-3.9813 prasiddh	-1.3797
-4.1952 prastut	-1.1428
-5.2366 prastutakartaa	-0.4771
-5.2366 prateek	-0.4716
-3.3335 prateexaa	-1.9460
-5.2366 pratham	-0.4756
-4.4584 prati	-1.1131
-5.2366 pratiShThit	-0.4771
-4.2366 pratib^dhit	-1.0784
-4.0325 pratibimb	-1.2515
-4.2823 pratidin	-1.0734
-4.9355 pratikriyaa	-0.6926
-4.0325 pratimaa	-1.2521
-5.2366 pratishat	-0.4730
-5.2366 pratispardhaa	-0.4694
-5.2366 pratispardheetaa	-0.4694
-5.2366 pratiuttar	-0.4764
-5.2366 pratiyogee	-0.4767
-2.9443 pratiyogitaa	-2.2847
-5.2366 pratyaxaa	-0.4763
-5.2366 pratyek	-0.4770
-4.6345 pravesh	-0.8442
-4.1952 praveshadvaar	-1.1360
-4.0605 prayaas	-1.3322
-5.2366 prayatn	-0.4758
-3.6345 prayaॊg	-1.6231
-3.5206 prayog	-1.7765
-4.9355 prayogaatmakataa	-0.5761
-4.9355 prayogakartaao^	-0.5943
-4.7595 prem	-0.7749
-5.2366 premapoorN	-0.4771
-5.2366 premee	-0.4764
-5.2366 priyaa	-0.4744
-3.6345 priyaॊg	-1.6225
-4.0325 prograam	-1.2941
-5.2366 prograamar	-0.4713
-5.2366 prophaail	-0.4771
-3.8748 propheshanal	-1.4063
-3.7452 puShkar	-1.5478
-4.9355 puchakaarane	-0.5943
-4.1226 pujaaree	-1.2242
-4.9355 pujaariyo^	-0.5912
-3.1432 pun:	-2.1661
-4.2366 puneet	-1.0784
-5.2366 puraaNee	-0.4771
-3.2154 puraanaa	-2.0340
-3.6568 puraane	-1.6427
-3.7181 puraanee	-1.5902
-5.2366 puraskaar	-0.4771
-4.9355 puree	-0.6020
-4.2823 puruSh	-1.0410
-4.7595 pustak	-0.8273
-4.9355 pustakaalay	-0.6822
-4.9355 pustake^	-0.6989
-4.9355 pustikaa	-0.6990
-4.9355 putr	-0.6867
-4.9355 putree	-0.5943
-5.2366 pvaay^T	-0.4771
-3.8564 pyaar	-1.4557
-4.9355 pyaare	-0.5954
-4.5376 pyaaree	-0.9031
-5.2366 qhyaal	-0.4771
-3.9355 r^g	-1.3788
-4.9355 r^geen	-0.5952
-4.3335 r^geeniyaa*	-0.9932
-5.2366 raT	-0.4768
-3.9813 raaShTr	-1.3005
-4.9355 raag	-0.6990
-3.6568 raah	-1.6429
-3.9813 raahat	-1.3365
-4.4584 raaj	-1.0291
-4.1952 raajaa	-1.2216
-4.4584 raajamaarg	-0.8997
-4.9355 raajarShi	-0.6021
-4.3335 raajasee	-0.9999
-3.5738 raajasthaan	-1.6726
-3.8216 raajeev	-1.4356
-4.4584 raajy	-0.8997
-4.7595 raam	-0.7743
-5.2366 raamapur	-0.4705
-4.4584 raanee	-0.8998
-5.2366 raasataa	-0.4771
-3.6031 raastaa	-1.7182
-3.1193 raaste	-2.1113
-3.0576 raat	-2.1985
-3.6803 raatri	-1.6400
-4.3335 raatribhoj	-0.9923
-5.2366 raaunD	-0.4771
-4.6345 raay	-0.7781
-4.4584 raayataa	-0.8982
-4.6345 raaz	-0.9465
-5.2366 raazo^	-0.4737
-5.2366 rachanaa	-0.4763
-5.2366 rachanaatmakataa	-0.4718
-4.9355 raftaar	-0.6923
-4.0061 rah	-1.3772
-2.5921 rahaa	-2.5993
-4.4584 rahaa|	-1.1089
-4.6345 rahanaa	-0.8906
-3.4584 rahane	-1.7997
-4.9355 rahasyapoorN	-0.6018
-4.3335 rahataa	-0.9945
-4.5376 rahate	-0.9917
-3.7742 rahatee	-1.5109
-2.6154 rahe	-2.5926
-3.8941 rahe^	-1.4123
-4.9355 rahe^ge	-0.6664
-5.2366 rahe^|	-0.4512
-2.8283 rahee	-2.3811
-4.9355 rahee|	-0.6010
-3.6031 rahegaa	-1.6588
-5.2366 rahegee	-0.4512
-4.2366 rahiye	-1.0532
-4.9355 raho	-0.6989
-5.2366 rahoo*	-0.4765
-5.2366 raiD	-0.4771
-5.2366 raidaas	-0.4703
-4.1952 rajauree	-1.1139
-4.4584 rajisTar	-1.0748
-4.1226 rajisTraar	-1.3400
-3.9144 rakh	-1.4862
-3.6345 rakhaa	-1.6658
-5.2366 rakhaa|	-0.4512
-3.9813 rakhanaa	-1.4018
-4.7595 rakhane	-0.7718
-4.9355 rakharakhaav	-0.5943
-5.2366 rakhataa	-0.4767
-4.9355 rakhate	-0.6979
-4.4584 rakhe	-0.9940
-4.0605 rakhe^	-1.2710
-4.9355 rakhe^|	-0.6019
-3.6455 rakhee	-1.6514
-5.2366 rakhegaa|	-0.4512
-4.9355 rakho	-0.6982
-5.2366 rakhu*gee	-0.4512
-3.9578 ram	-1.3528
-4.4584 ramit	-0.9994
-4.1226 rani^g	-1.1761
-5.2366 rasaayan	-0.4771
-5.2366 rasal	-0.4756
-3.8941 raseed	-1.3917
-4.9355 rasoee	-0.6020
-4.1952 rat	-1.1139
-4.2366 rath	-1.0758
-4.9355 ravi	-0.5761
-4.0605 ravivaar	-1.2693
-5.2366 raxaa	-0.4771
-4.3335 reDee	-1.0000
-3.2498 reeDar	-1.9848
-4.9355 reesToreshan	-0.5967
-4.9355 regular	-0.6985
-4.1226 relagaaD.ee	-1.1699
-3.7595 relave	-1.5074
-5.2366 rephare^s	-0.4694
-2.6001 restaraa^	-2.6123
-2.9533 ret	-2.2824
-4.9355 reteele	-0.5952
-5.2366 revaD.ee	-0.4764
-5.2366 riTaayarD	-0.4771
-3.9578 riTreeT	-1.3221
-4.4584 rilaay^s	-0.8977
-4.7595 rinyoo	-0.8401
-5.2366 riplaaee	-0.4770
-3.5553 risaorT	-1.7242
-3.7894 risepshan	-1.4737
-3.9813 risepshanisT	-1.2952
-5.2366 rishtaa	-0.4771
-4.9355 riyaa	-0.5993
-4.9355 rizarveshan	-0.5965
-3.9355 rochak	-1.4131
-4.9355 roj	-0.6988
-5.2366 rojaanaa	-0.4769
-4.4584 rok	-0.9028
-4.9355 rokane	-0.6929
-4.9355 rokee	-0.6013
-3.4584 rol	-1.7938
-4.2366 romaa^ch	-1.1075
-3.9144 roman	-1.3509
-4.1952 roobaroo	-1.1139
-4.7595 roochi	-0.8395
-3.8564 rook	-1.4588
-4.6345 rookaa	-0.8355
-4.3335 rookavaa	-0.9988
-4.2823 rookavaaee	-1.0406
-3.8216 rooke	-1.4982
-4.3335 rookee	-0.9938
-4.3335 rookh	-0.9945
-4.1574 room	-1.1461
-3.7452 roop	-1.5335
-3.5290 roopae	-1.7625
-4.9355 roopayaa	-0.5979
-4.7595 roopaye	-0.8444
-3.8564 roshanee	-1.5052
-4.9355 rotee	-0.5965
-4.7595 roz	-0.7742
-5.2366 ruaab	-0.4713
-4.9355 sRjan	-0.6021
-5.2366 sTaarTiD	-0.4771
-4.9355 sTaok	-0.5958
-3.2588 sTeshan	-1.9843
-4.2823 sTifan	-1.0414
-4.1952 sTor	-1.1031
-5.2366 s^b^dh	-0.4716
-4.7595 s^bandh	-0.7672
-4.7595 s^bandhee	-0.8450
-4.6345 s^bandhit	-0.9512
-4.9355 s^bhaal	-0.6010
-5.2366 s^bhaalane	-0.4768
-4.2366 s^bhaavanaa	-1.0730
-3.8564 s^bhav	-1.4350
-3.5042 s^bodhit	-1.7593
-4.7595 s^darbh	-0.8444
-4.6345 s^desh	-0.9447
-5.2366 s^desho^	-0.4739
-4.2823 s^gam	-1.0462
-3.1260 s^geet	-2.0903
-4.9355 s^grahaalay	-0.5979
-3.5042 s^jay	-1.7627
-4.2366 s^jeedagee	-1.0725
-4.9355 s^jeet	-0.6012
-4.0605 s^juktaa	-1.2869
-4.9355 s^karaa	-0.5965
-4.6345 s^khyaa	-0.8342
-5.2366 s^lagn	-0.4769
-4.9355 s^park	-0.6017
-5.2366 s^patti	-0.4716
-4.6345 s^saar	-0.8805
-5.2366 s^sarg	-0.4768
-3.6803 s^sthaan	-1.5791
-3.9813 s^sthaano^	-1.3003
-4.9355 s^t	-0.6985
-4.1574 s^toSh	-1.1950
-4.9355 s^toShee	-0.6021
-5.2366 s^tuShT	-0.4722
-4.1574 s^tuShTi	-1.1705
-5.2366 s^vedanasheel	-0.4771
-5.2366 s^xep	-0.4663
-3.9355 s^yam	-1.3424
-4.3335 saD.	-0.9989
-3.4237 saD.ak	-1.8330
-4.4584 saD.ake^	-0.9029
-4.9355 saD.ako^	-0.6899
-5.2366 saD.ee	-0.4771
-5.2366 saTTaa	-0.4767
-5.2366 saTeek	-0.4771
-3.5376 saa	-1.8288
-5.2366 saa*jh	-0.4771
-4.9355 saa*s	-0.6015
-3.6133 saaDh.e	-1.6805
-3.8941 saa^s	-1.3974
-3.8748 saa^y	-1.4438
-3.8216 saa^yakaal	-1.4477
-4.9355 saabit	-0.6014
-4.5376 saadhaaraN	-0.9941
-5.2366 saadhan	-0.4737
-5.2366 saadhanaa	-0.4769
-4.1226 saadhuvaad	-1.1750
-5.2366 saadhy	-0.4739
-5.2366 saaeeT	-0.4771
-4.2366 saaf	-1.1750
-3.6031 saagar	-1.6720
-3.1127 saahab	-2.1692
-5.2366 saaiT	-0.4512
-4.7595 saaibar	-0.8451
-4.9355 saaiz	-0.5912
-4.9355 saaj	-0.6021
-5.2366 saakh	-0.4737
-3.3615 saal	-1.9065
-5.2366 saamaajik	-0.4771
-3.1062 saamaan	-2.1723
-4.9355 saamaany	-0.6021
-5.2366 saamaanyat	-0.4771
-5.2366 saamaanyat:	-0.4758
-4.7595 saamagree	-0.7725
-5.2366 saamanaa	-0.4765
-3.2280 saamane	-2.0478
-3.6803 saamanevaalaa	-1.5797
-4.2366 saamane|	-1.0779
-4.4584 saamraajy	-0.8977
-5.2366 saannoo	-0.4771
-4.9355 saaph	-0.5952
-4.0325 saaraa	-1.2778
-4.4584 saare	-1.0411
-3.8386 saaree	-1.4605
-3.5206 saat	-1.7702
-5.2366 saatavee^	-0.4771
-2.8805 saath	-2.3540
-3.7742 saathee	-1.5234
-4.0904 saathiyo^	-1.2214
-5.2366 saau^D	-0.4771
-4.9355 saavadhaaneevash	-0.5997
-4.4584 saavitree	-0.9027
-5.2366 saaxaat	-0.4766
-4.1226 saa|	-1.1501
-3.5834 sab	-1.7770
-5.2366 sabak	-0.4694
-4.9355 sabakaa	-0.6018
-4.1574 sabake	-1.1755
-4.3335 sabakee	-0.9999
-5.2366 sabako	-0.4768
-4.1952 sabane	-1.1747
-3.2498 sabase	-2.0596
-2.6313 sabhee	-2.6077
-4.9355 sabhy	-0.6990
-5.2366 sabhyataapoorN	-0.4771
-5.2366 sabjekT	-0.4767
-5.2366 sachamuch	-0.4769
-5.2366 sachche	-0.4770
-5.2366 sachitr	-0.4771
-4.9355 sadaa	-0.6990
-4.1226 sadaiv	-1.1723
-5.2366 sadasy	-0.4767
-4.5376 sadiyo^	-0.8961
-4.1952 safal	-1.1451
-3.8748 safar	-1.4063
-5.2366 sahaanubhooti	-0.4769
-4.7595 sahaayataa	-0.7702
-4.7595 sahamat	-0.7752
-4.6345 sahamati	-0.9477
-5.2366 sahamit	-0.4770
-4.4584 saharSh	-0.9031
-5.2366 sahasaa	-0.4761
-5.2366 sahastradhaaraa	-0.4694
-3.1260 sahee	-2.1606
-4.1952 sahit	-1.1136
-5.2366 saiD	-0.4771
-4.1952 saiT	-1.1139
-4.1226 saiTi^g	-1.2237
-4.9355 saikaD.o^	-0.6015
-3.4807 sair	-1.7949
-4.3335 sajaavaT	-0.9999
-4.6345 sajeevataa	-0.7778
-4.9355 sajjaa	-0.6882
-5.2366 sakaa	-0.4770
-4.6345 sakaaraatmak	-0.7781
-5.2366 sakane	-0.4764
-3.3072 sakataa	-1.9473
-3.7894 sakataa|	-1.4887
-2.9765 sakate	-2.2483
-4.0904 sakatee	-1.2702
-5.2366 sakatee^	-0.4512
-4.4584 sakate|	-0.9023
-3.9813 sake	-1.2948
-4.2823 sake^	-1.1127
-5.2366 sake^ge	-0.4512
-4.2823 sake^|	-1.0154
-4.4584 sako	-0.8969
-5.2366 sakoo	-0.4767
-4.0325 salaah	-1.3135
-4.4584 salaam	-0.9031
-4.7595 samaa	-0.7693
-4.3915 samaachaar	-1.1646
-5.2366 samaadhaan	-0.4771
-5.2366 samaae	-0.4722
-3.6455 samaapt	-1.6438
-3.2031 samajh	-2.0659
-3.5738 samajhaa	-1.7046
-5.2366 samajhaae*|	-0.4512
-5.2366 samajhaaee|	-0.4753
-3.9355 samajhaao	-1.3548
-4.1574 samajhaayaa	-1.1686
-3.7452 samajhadaar	-1.5394
-3.7314 samajhadaaree	-1.5625
-4.9355 samajhanaa	-0.6918
-3.9813 samajhane	-1.3003
-4.5376 samajhataa	-0.9463
-3.9355 samajhe	-1.3362
-5.2366 samajhie	-0.4724
-4.3335 samajho	-1.0414
-4.9355 samarpaN	-0.6971
-4.9355 samarpit	-0.5965
-3.4962 samasyaa	-1.7896
-4.9355 samatal	-0.6021
-2.7207 samay	-2.4640
-4.5376 samayaavadhi	-0.9354
-5.2366 samayakaal	-0.4663
-4.1952 sameT	-1.1134
-3.2681 sameer	-1.9856
-4.9355 sameeti	-0.5963
-2.9533 sameexaa	-2.2873
-3.2543 sameexaae*	-1.9653
-5.2366 samiti	-0.4713
-5.2366 sammaan	-0.4769
-4.3335 sammilit	-0.9983
-3.7181 samooh	-1.5862
-2.9488 samose	-2.2680
-4.3915 samraaT	-0.9999
-5.2366 samudaay	-0.4761
-4.3335 samudr	-0.9999
-5.2366 san\	-0.4763
-4.6345 san‌	-0.8809
-3.6568 saofTaveyar	-1.7312
-4.9355 saoliD	-0.6016
-3.8216 saophTaveyar	-1.4471
-4.5376 saopha़\Taveyar	-0.9872
-4.9355 saopha़\Taveyaro^	-0.6848
-5.2366 saphal	-0.4722
-3.8941 saphar	-1.4223
-5.2366 sapha़r	-0.4737
-4.0904 saporT	-1.3723
-4.2366 saptaah	-1.1129
-3.5931 saptaahaa^t	-1.6629
-3.8941 sar	-1.4211
-4.9355 saraahaneey	-0.5965
-3.3853 sarakaaree	-1.8747
-5.2366 saral	-0.4766
-5.2366 sarap^cho^	-0.4713
-5.2366 sarapaT	-0.4768
-5.2366 saravars	-0.4737
-5.2366 sarch	-0.4767
-5.2366 sarchainjan	-0.4767
-4.2823 sardee	-1.0305
-4.3915 sardiyo^	-0.9836
-4.1952 sarkuleshan	-1.1139
-4.4584 sarovar	-0.9454
-3.8216 sarv	-1.4618
-4.9355 sarvagY	-0.5943
-4.7595 sarvar	-0.7681
-4.3335 sarvasammatee	-0.9934
-3.9355 sarvis	-1.4494
-5.2366 sarvis|	-0.4771
-5.2366 sarvochit	-0.4716
-5.2366 sashakt	-0.4771
-3.4442 sastaa	-1.8213
-4.9355 saste	-0.6881
-4.9355 satark	-0.6001
-5.2366 satr	-0.4770
-4.9355 saty	-0.6984
-4.9355 satyavachan	-0.6020
-3.8216 sau	-1.5048
-4.9355 sau^p	-0.6983
-5.2366 saudaa	-0.4761
-4.0061 savaa	-1.3008
-4.6345 savaal	-0.8402
-5.2366 savaalo^	-0.4766
-3.8216 savaar	-1.4883
-4.6345 savaaree	-0.8876
-4.4584 saveraa	-0.9005
-3.9813 savere	-1.3913
-1.8186 se	-3.3199
-4.9355 seTh	-0.5761
-4.6345 se^T	-0.7761
-5.2366 se^Tar	-0.4764
-5.2366 se^Taro^	-0.4663
-3.2921 see	-2.0552
-4.4584 seeDee	-0.9031
-3.9355 seeDh.iyaa*	-1.3972
-3.2823 seeT	-1.9774
-3.7894 seeTe^	-1.4985
-4.1226 seeTo^	-1.1727
-5.2366 seedhaa	-0.4770
-3.8941 seedhe	-1.4274
-4.2823 seedhee	-1.1101
-5.2366 seejan	-0.4762
-3.9144 seekh	-1.4147
-5.2366 seekhaa	-0.4709
-5.2366 seekhane	-0.4713
-5.2366 seekhataa	-0.4767
-3.9813 seekhate|	-1.2995
-3.9578 seemaa	-1.3350
-3.8941 seemit	-1.4181
-4.1952 seerija़	-1.1138
-3.5553 seetalaa	-1.7051
-5.2366 sehat	-0.4709
-4.7595 sekanD	-0.6730
-5.2366 sel	-0.4771
-4.0325 selsiyas	-1.2713
-4.4584 senTar	-1.0240
-5.2366 sev	-0.4758
-4.0325 sevaa	-1.3972
-4.6345 sevaae*	-0.9529
-4.4584 sevaao^	-1.0246
-5.2366 sevaaye^	-0.4737
-5.2366 se|shaayad	-0.4758
-3.9578 shR^khalaa	-1.3103
-4.2366 shaa^daar	-1.0754
-4.4584 shaa^t	-0.9031
-4.6345 shaa^ti	-0.8964
-3.0904 shaakaahaaree	-2.1602
-4.0325 shaam	-1.2754
-5.2366 shaan	-0.4705
-3.9144 shaanadaar	-1.3884
-5.2366 shaanoo	-0.4512
-4.4584 shaasan	-0.9024
-4.6345 shaastree	-0.7773
-4.3915 shaayad	-1.1424
-4.1952 shabd	-1.1393
-3.8748 shabdo^	-1.4154
-5.2366 shagoophaa	-0.4771
-5.2366 shah^shaah	-0.4771
-4.3915 shahar	-0.9740
-5.2366 shaikaneek	-0.4746
-4.9355 shailesh	-0.6012
-4.3335 shak	-0.9998
-4.5376 shakuntalaa	-1.0178
-3.9355 shanivaar	-1.3366
-4.9355 shaorTakaT	-0.5954
-3.9144 sharT	-1.3898
-4.0904 shareef	-1.2426
-4.1952 shareer	-1.1273
-3.1991 sharmaa	-2.0216
-3.9813 sharmanaak	-1.2751
-5.2366 shart	-0.4737
-2.9488 shartiyaa	-2.2916
-5.2366 shashi	-0.4771
-4.4584 shataabdee	-0.9019
-4.4584 shataabdiyo^	-0.9019
-5.2366 shatru	-0.4768
-4.7595 shauk	-0.8416
-4.3335 shav	-1.0000
-4.1226 sheeghr	-1.1723
-4.9355 sheerShak	-0.6020
-4.3335 sheeshe	-0.9942
-3.9144 sheetal	-1.3802
-4.3915 sher	-1.0783
-4.4584 shevaraleT	-0.8973
-5.2366 sheyar	-0.4769
-5.2366 shikaar	-0.4771
-5.2366 shikaaree	-0.4767
-5.2366 shikaaro^	-0.4718
-5.2366 shikaayat	-0.4770
-4.9355 shikhaao^	-0.5988
-4.6345 shikhar	-0.7748
-4.9355 shilaa	-0.5987
-5.2366 shilp	-0.4771
-4.3335 shilpakaaree	-0.9942
-4.9355 shilpee	-0.6673
-4.1952 shivakumaar	-1.1137
-4.2366 shivaraatri	-1.0777
-5.2366 shixit	-0.4771
-3.5738 shobhanaa	-1.7173
-5.2366 shoroom	-0.4760
-4.9355 shraddhaa	-0.5993
-4.9355 shraddhaalu	-0.6021
-3.9813 shreNee	-1.2952
-3.2543 shreNiyaa*	-1.9653
-4.7595 shreenivaasakRShNan	-0.7521
-3.5376 shreesh	-1.7272
-4.1952 shreevaastav	-1.0880
-4.0061 shubh	-1.3195
-4.2823 shubhakaamanaae*	-1.0414
-4.9355 shubhakaamanaae^	-0.5761
-5.2366 shubhakaamanaao^	-0.4767
-5.2366 shubhakaamanaaye^	-0.4512
-3.7894 shubharaatri	-1.4911
-3.9355 shuddhataa	-1.3390
-4.2366 shueb	-1.0790
-5.2366 shukl	-0.4512
-5.2366 shuklaa	-0.4512
-4.1574 shukr	-1.1403
-4.2366 shukravaar	-1.1054
-3.6925 shukriyaa	-1.5958
-5.2366 shulk	-0.4767
-4.1952 shuroo	-1.1655
-4.9355 shuru	-0.6963
-4.0605 shuruaat	-1.3017
-5.2366 shuruaatee	-0.4771
-4.1226 shuruvaat	-1.1699
-4.2366 shvet	-1.1457
-4.3335 shyaam	-1.0410
-3.9813 siTTee	-1.3010
-4.1952 siTee	-1.1139
-4.6345 si^chaaee	-0.7673
-3.8386 si^h	-1.4441
-3.9813 si^haasan	-1.2976
-4.6345 sichaaee	-0.7777
-5.2366 siddhaa^t	-0.4716
-4.9355 siddhaant	-0.6929
-4.1952 siddhapeeTho^	-1.1031
-5.2366 signechar	-0.4663
-4.3335 sikaaee	-0.9993
-4.9355 sikhaayaa	-0.6914
-4.9355 sikho^	-0.5912
-5.2366 simbian	-0.4771
-3.9813 simbiyan	-1.4332
-5.2366 simesTar	-0.4663
-3.8564 sin	-1.4305
-4.9355 sinemaa	-0.6018
-3.6568 sir	-1.6187
-3.1062 sirf	-2.1749
-4.9355 sirph	-0.6922
-4.9355 sirpha़	-0.6986
-4.6345 sisTam	-0.8339
-4.1952 sitalaakhet	-1.1136
-4.3335 siyaalasaur	-0.9966
-3.9144 skool	-1.3731
-5.2366 skraol	-0.4758
-4.6345 skreen	-0.9429
-5.2366 skreenashaoT	-0.4752
-4.1952 skveyar	-1.1139
-3.8941 sleepi^g	-1.3800
-5.2366 slim	-0.4771
-3.8564 slipi^g	-1.4147
-4.4584 smaarak	-0.8977
-4.9355 snaan	-0.6007
-5.2366 snaatak	-0.4767
-3.5738 snigdhaa	-1.7337
-3.5290 so	-1.7740
-3.3673 soch	-1.9177
-3.0244 sochaa	-2.2140
-5.2366 sochakar	-0.4771
-4.1952 sochane	-1.1939
-4.9355 sochate	-0.5963
-4.9355 soche	-0.6017
-5.2366 soche^	-0.4763
-3.7181 sochee	-1.5933
-3.4105 sochee|	-1.8519
-5.2366 sochegaa	-0.4770
-5.2366 sochegee	-0.4724
-4.3335 sochie	-0.9996
-4.9355 socho	-0.5973
-4.6345 soe	-0.7762
-3.9813 sofe	-1.2976
-3.5123 sone	-1.7558
-4.9355 sooT	-0.5912
-2.9465 soochanaa	-2.2958
-4.9355 soochanaapaT	-0.6020
-5.2366 soochi	-0.4694
-4.4584 soofee	-0.9031
-4.2823 soojhaa	-1.0784
-4.3335 sookh	-0.9989
-4.0325 soomo	-1.2785
-5.2366 soonee	-0.4770
-5.2366 sooradaas	-0.4771
-5.2366 soorat	-0.4663
-5.2366 soorato^	-0.4663
-3.5376 soory	-1.7387
-3.3389 sooryaast	-1.8943
-4.9355 sooryam^dir	-0.6018
-4.4584 sooryoday	-0.9027
-5.2366 sootr	-0.4737
-2.9488 sosaayaTee	-2.2680
-3.7894 soyaa	-1.4818
-4.9355 spaShT	-0.6007
-5.2366 spaaeesee	-0.4771
-4.4584 spaim	-1.1055
-5.2366 spardhaa	-0.4769
-4.9355 speekar	-0.6878
-4.9355 spem	-0.6947
-5.2366 spre	-0.4771
-4.3335 srot	-0.9983
-3.6133 star	-1.6560
-5.2366 stareey	-0.4771
-3.8564 sthaan	-1.4667
-4.7595 sthaanaa^taraN	-0.8431
-4.6345 sthaaneey	-0.8414
-3.8748 sthaapanaa	-1.4392
-4.9355 sthaapit	-0.6020
-5.2366 sthagit	-0.4767
-3.9355 sthal	-1.4171
-3.8216 sthalo^	-1.4591
-3.6455 sthit	-1.6998
-3.9355 sthiti	-1.3599
-3.8216 su^dar	-1.4988
-3.1030 subah	-2.1754
-4.3335 subahe	-1.0000
-3.8941 subhaaSh	-1.3971
-4.9355 suboshree	-0.5954
-4.9355 sudh	-0.6018
-4.3915 sudhaar	-1.0759
-5.2366 sudhaarane	-0.4694
-4.7595 sudharaa	-0.7710
-4.6345 sudharane	-0.7781
-4.9355 sudharatee	-0.6020
-5.2366 sueeT	-0.4770
-4.9355 sugamataa	-0.5954
-3.2543 sugandh	-1.9846
-4.9355 suhaavanee	-0.6017
-3.8564 suiT	-1.4381
-4.1226 sujaataa	-1.1753
-3.9355 sujhaav	-1.3414
-5.2366 sukhee	-0.4761
-5.2366 sulajhaa	-0.4758
-5.2366 sulajhaane	-0.4663
-5.2366 sulajhaao|	-0.4753
-3.5042 sun	-1.7760
-4.4584 sunaa	-1.0691
-4.4584 sunaaee	-0.9995
-4.9355 sunaate	-0.6020
-4.2823 sunane	-1.1005
-4.4584 sunasaan	-0.9029
-5.2366 sunataa	-0.4716
-3.9144 sunate	-1.4048
-3.1912 sundar	-2.0842
-4.7595 sune	-0.6988
-4.9355 suneel	-0.6721
-5.2366 suneetaa	-0.4771
-5.2366 suraxaa	-0.4718
-5.2366 sust	-0.4722
-5.2366 sutharaa	-0.4703
-3.6684 suvidhaa	-1.6798
-5.2366 suvidhaao	-0.4724
-5.2366 suvidhaao^	-0.4703
-4.9355 svaabhaavik	-0.5983
-3.9813 svaad	-1.3007
-3.3673 svaadiShT	-1.8980
-3.6345 svaagat	-1.6240
-3.2409 svaamee	-1.9818
-4.9355 svaasthy	-0.6020
-4.1952 svaasthyavardhak	-1.1091
-5.2366 svarg	-0.4713
-5.2366 svaroop	-0.4768
-4.7595 svat^tr	-0.7772
-4.9355 svat^trataa	-0.6986
-3.3228 svay^	-1.9606
-4.3335 sveekaar	-1.0786
-4.3335 sveekaaraa|	-0.9998
-4.9355 sveekaare	-0.5761
-5.2366 sveekaary	-0.4722
-4.9355 t^boo	-0.5943
-4.9355 t^buo	-0.5912
-4.9355 t^buo^	-0.5943
-4.9355 t^g	-0.6985
-3.9355 t^tr	-1.3423
-3.8941 taaD.akeshvar	-1.3801
-4.3335 taadaad	-0.9996
-3.9144 taajaa	-1.3771
-5.2366 taajjub	-0.4713
-4.9355 taak	-0.5912
-4.0605 taakee	-1.2537
-3.5206 taaki	-1.7686
-4.2366 taal	-1.1792
-4.5376 taalaa	-0.9991
-3.3792 taalaab	-1.8526
-4.0061 taapamaan	-1.3207
-4.2823 taapate	-1.0414
-3.4584 taaraagaDh.	-1.7921
-4.4584 taaragaDh.	-0.8922
-3.8941 taarakeshvar	-1.3848
-4.9355 taareef	-0.6018
-3.7181 taareekh	-1.5449
-4.3915 taareeqh	-0.9832
-4.2366 taash	-1.1086
-4.6345 taatpary	-0.8396
-4.9355 taazaa	-0.6977
-4.1226 taazee	-1.1760
-3.2872 tab	-1.9965
-4.2366 tabaho	-1.0768
-3.9813 tabake	-1.3005
-3.9813 tabatak	-1.3010
-4.3335 tabdeel	-0.9993
-3.9813 tabeeyat	-1.3718
-3.4442 tabhee	-1.8577
-4.0904 tabiyat	-1.2440
-4.3335 tagaD.e	-0.9999
-4.2823 tahat	-1.0414
-5.2366 tahazeeb	-0.4771
-4.9355 tairate	-0.6014
-4.1952 taise	-1.1139
-4.2823 taisee	-1.0790
-3.2366 taiyaar	-2.0147
-3.6345 taiyaaree	-1.6355
-4.9355 tajurbaa	-0.6015
-2.7494 tak	-2.5037
-4.3335 takaneek	-1.1316
-4.9355 takaneekagY	-0.6985
-4.0061 takaneekee	-1.4624
